/*!
 * The following copyright notice may not be removed under any circumstances.
 * 
 * Copyright:
 * Copyright (c) 2008 by Jos Buivenga/exljbris. All rights reserved.
 * 
 * Description:
 * This is a protected webfont and is intended for CSS @font-face use ONLY.
 * Reverse engineering this font is strictly prohibited.
 */
Cufon.registerFont({"w":606,"face":{"font-family":"","font-weight":400,"font-stretch":"normal","units-per-em":"1000","panose-1":"2 0 0 0 0 0 0 0 0 0","ascent":"750","descent":"-250","x-height":"12","bbox":"-21 -883 960.961 210","underline-thickness":"50","underline-position":"-50","unicode-range":"U+0020-U+2122"},"glyphs":{" ":{"w":272},"!":{"d":"116,-184r-3,-519r70,0r-3,519r-64,0xm111,0r0,-77r77,0r0,77r-77,0","w":297},"\"":{"d":"187,-544r0,-169r59,0r0,169r-59,0xm66,-544r0,-169r59,0r0,169r-59,0","w":312},"#":{"d":"149,0r34,-195r-142,0r10,-56r141,0r35,-196r-141,0r9,-56r142,0r35,-200r61,0r-35,200r173,0r35,-200r61,0r-35,200r140,0r-10,56r-140,0r-34,196r139,0r-9,56r-140,0r-34,195r-61,0r34,-195r-173,0r-34,195r-61,0xm254,-251r172,0r35,-196r-173,0","w":713},"$":{"d":"275,-53v74,0,140,-52,140,-116v0,-95,-70,-121,-136,-153v-70,-33,-166,-79,-192,-136v-11,-25,-19,-55,-19,-92v0,-86,88,-155,179,-162r0,-95r57,0r0,93v75,8,165,40,164,120r0,50r-66,0r0,-33v-3,-50,-64,-73,-126,-73v-68,0,-136,45,-136,106v0,103,101,120,174,158v87,44,174,83,173,214v-1,93,-86,178,-183,182r0,93r-57,0r0,-93v-79,-6,-162,-62,-201,-130r52,-42v31,52,98,109,177,109","w":532},"%":{"d":"343,-576v0,75,-66,139,-141,139v-76,0,-140,-64,-140,-139v0,-75,65,-139,140,-139v75,0,141,64,141,139xm68,0r536,-703r71,0r-535,703r-72,0xm121,-576v0,45,37,83,81,83v44,0,82,-38,82,-83v0,-45,-38,-83,-82,-83v-44,0,-81,39,-81,83xm540,12v-75,0,-140,-63,-140,-138v0,-75,65,-140,140,-140v75,0,141,65,141,140v0,75,-66,138,-141,138xm540,-210v-45,0,-80,40,-80,84v0,45,36,82,80,82v44,0,82,-37,82,-82v0,-45,-38,-84,-82,-84","w":743},"&":{"d":"285,12v-131,2,-240,-85,-239,-208v0,-87,53,-165,127,-183r0,-2v-56,-24,-97,-78,-97,-162v0,-132,149,-202,290,-161r-20,57v-101,-27,-198,20,-198,114v0,88,59,127,151,127r146,0r0,-97r69,0r0,97r93,0r0,62r-93,0r0,103v2,156,-82,251,-229,253xm301,-344v-108,-2,-183,47,-184,143v-1,90,71,150,166,148v110,-2,164,-70,162,-190r0,-101r-144,0","w":624},"'":{"d":"66,-544r0,-169r59,0r0,169r-59,0","w":191},"(":{"d":"200,95v-150,-233,-154,-594,-7,-825r64,0v-149,250,-144,571,6,825r-63,0","w":309},")":{"d":"46,95v150,-254,155,-575,6,-825r64,0v147,234,143,591,-7,825r-63,0","w":309},"*":{"d":"152,-337r-53,-38r94,-120r0,-2r-147,-42r20,-63r144,53r-6,-154r68,0r-7,154r146,-52r20,61r-148,43r0,2r94,120r-52,39r-86,-127r-2,0","w":477},"+":{"d":"42,-255r0,-58r231,0r0,-255r61,0r0,255r230,0r0,58r-230,0r0,255r-61,0r0,-255r-231,0"},",":{"d":"80,-82r73,0r-73,179r-57,0","w":215},"-":{"d":"74,-253r0,-62r284,0r0,62r-284,0","w":432},".":{"d":"69,0r0,-80r77,0r0,80r-77,0","w":215},"\/":{"d":"3,42r254,-784r63,0r-253,784r-64,0","w":325},"0":{"d":"544,-352v0,243,-80,364,-242,364v-162,0,-243,-122,-243,-364v0,-242,81,-363,242,-363v122,0,194,81,221,178v14,52,22,114,22,185xm301,-53v114,0,171,-100,171,-299v0,-199,-57,-298,-171,-298v-114,0,-171,99,-171,298v0,199,57,299,171,299","w":602},"1":{"d":"64,0r0,-62r157,0r1,-555r-2,0v-23,37,-78,82,-110,117r-44,-45r159,-158r66,0r0,641r154,0r0,62r-381,0","w":476},"2":{"d":"105,0v-48,0,-63,-20,-63,-69v0,-160,135,-214,240,-275v87,-51,132,-106,132,-173v0,-75,-63,-132,-138,-132v-63,0,-127,27,-131,76r0,33r-66,0r0,-52v0,-58,44,-96,132,-116v146,-34,275,54,275,182v0,163,-134,214,-240,276v-87,51,-132,105,-132,168v0,13,8,20,23,20r294,0v32,2,20,-41,22,-69r65,0r0,70v0,43,-18,61,-61,61r-352,0","w":564},"3":{"d":"483,-216v0,129,-103,228,-232,228v-94,0,-186,-54,-225,-98r42,-52v56,56,117,84,184,84v84,0,159,-67,159,-153v0,-90,-81,-148,-171,-147r-49,0r-16,-41r173,-208v11,-15,23,-28,36,-39r0,-2v-69,6,-164,3,-240,3v-32,0,-20,41,-22,69r-65,0r0,-70v0,-44,15,-61,59,-61r357,0r0,46r-207,243v51,3,98,19,141,48v51,34,76,84,76,150","w":528},"4":{"d":"15,-194r0,-46r342,-463r75,0r0,447r112,0r0,62r-112,0r0,194r-70,0r0,-194r-347,0xm363,-256r0,-287r3,-68r-2,0v-11,19,-23,37,-36,54r-195,258r-37,44r0,2v84,-7,178,-1,267,-3","w":562},"5":{"d":"98,-137v32,46,86,81,163,83v96,2,175,-71,175,-165v0,-118,-125,-193,-251,-155v-33,9,-46,17,-66,30r-36,-15r30,-283v4,-42,17,-60,61,-61r231,0v43,0,60,18,60,61r0,70r-65,0v-2,-28,10,-69,-22,-69r-178,0v-13,0,-20,7,-22,22r-18,159r-6,40v32,-15,65,-26,108,-26v134,0,246,99,246,228v0,128,-114,230,-247,230v-79,0,-166,-41,-207,-100","w":569},"6":{"d":"518,-218v0,135,-94,231,-230,230v-150,-2,-245,-155,-245,-321v0,-79,16,-153,47,-221v56,-123,143,-185,262,-185v52,0,94,11,129,29r-26,61v-68,-37,-166,-33,-225,19v-63,55,-102,135,-112,245r2,0v29,-51,101,-85,179,-85v128,0,219,96,219,228xm290,-384v-79,0,-170,54,-172,120v-3,93,82,211,176,211v96,0,153,-74,153,-169v0,-95,-64,-162,-157,-162","w":560},"7":{"d":"30,-642v0,-43,17,-61,60,-61r415,0r0,48r-348,655r-78,0r306,-576v12,-23,28,-43,39,-67v-12,1,-30,2,-53,2r-253,0v-32,-2,-20,41,-22,69r-66,0r0,-70","w":512},"8":{"d":"286,12v-126,0,-239,-82,-239,-210v0,-45,15,-85,45,-119v32,-36,50,-52,80,-67v-1,-5,-7,-5,-10,-8v-45,-25,-86,-70,-86,-139v0,-109,92,-184,212,-184v122,0,215,72,215,187v0,63,-45,138,-94,174r0,2v65,35,111,72,113,161v2,114,-115,203,-236,203xm288,-650v-79,0,-142,46,-142,118v0,34,13,59,34,78v27,24,131,70,169,70v11,0,29,-15,51,-46v22,-31,33,-64,33,-99v0,-74,-66,-121,-145,-121xm284,-53v81,0,167,-58,166,-134v0,-37,-12,-63,-33,-83v-26,-25,-149,-79,-189,-82v-14,0,-36,15,-65,46v-29,31,-44,68,-44,109v0,83,81,144,165,144","w":570},"9":{"d":"272,-715v150,2,250,155,245,321v-5,198,-94,404,-309,406v-58,0,-95,-11,-129,-29r26,-61v68,37,166,33,225,-19v64,-57,103,-137,112,-246r-2,0v-29,51,-102,86,-179,86v-129,0,-218,-95,-218,-227v0,-135,93,-232,229,-231xm113,-482v0,95,64,163,157,163v79,0,170,-54,172,-120v3,-93,-82,-211,-176,-211v-96,0,-153,73,-153,168","w":560},":":{"d":"103,-423r0,-80r77,0r0,80r-77,0xm103,0r0,-80r77,0r0,80r-77,0","w":283},";":{"d":"103,-423r0,-80r77,0r0,80r-77,0xm54,97r48,-179r73,0r-64,179r-57,0","w":283},"<":{"d":"69,-259r0,-50r452,-202r0,67r-367,159r0,2r367,159r0,67"},"=":{"d":"70,-342r0,-58r466,0r0,58r-466,0xm70,-168r0,-58r466,0r0,58r-466,0"},">":{"d":"77,-57r0,-67r367,-159r0,-2r-367,-159r0,-67r452,202r0,50"},"?":{"d":"200,-716v108,0,202,72,200,177v0,57,-21,106,-64,145r-52,47v-54,51,-67,84,-63,163r-68,0v-4,-86,9,-134,61,-186r52,-48v41,-38,62,-75,62,-112v1,-74,-59,-120,-136,-120v-41,0,-79,14,-116,42r-37,-51v32,-27,102,-57,161,-57xm149,0r0,-77r77,0r0,77r-77,0","w":431},"@":{"d":"407,124v-201,5,-366,-166,-366,-366v0,-192,162,-367,345,-367v91,0,156,18,196,54v40,36,60,81,60,135r0,315r71,0r0,56r-269,0v-108,3,-200,-87,-200,-192v0,-105,91,-192,200,-192r130,0v-6,-78,-76,-117,-172,-117v-161,0,-291,146,-291,309v0,166,130,309,296,305r0,60xm452,-380v-76,-2,-138,63,-138,138v0,74,62,137,136,137r124,0r0,-275r-122,0","w":739},"A":{"d":"12,0r0,-62v25,1,43,-3,49,-22r230,-619r75,0r230,619v6,18,23,24,48,22r0,62v-31,0,-72,0,-86,-11v-10,-8,-20,-23,-29,-47r-61,-166r-279,0r-62,166v-19,44,-25,57,-82,58r-33,0xm208,-285r241,0r-93,-251r-27,-91r-2,0v-34,130,-78,223,-119,342","w":657},"B":{"d":"166,0v-43,0,-61,-18,-61,-61r0,-580r-65,0r0,-62r299,0v109,-1,190,69,190,177v0,73,-30,124,-90,153r0,2v69,18,118,88,118,174v0,120,-91,197,-210,197r-181,0xm457,-520v0,-72,-48,-121,-120,-121r-162,0r0,243r163,0v70,1,119,-51,119,-122xm484,-199v0,-82,-56,-139,-138,-139r-171,0r0,254v0,15,7,22,22,22r150,0v84,1,137,-54,137,-137"},"C":{"d":"389,12v-201,0,-351,-167,-351,-367v0,-198,152,-360,347,-360v99,0,194,36,237,81v31,31,26,71,26,126r-66,0v4,-64,-6,-87,-63,-113v-42,-19,-86,-28,-132,-28v-158,-3,-276,130,-276,292v0,162,121,303,281,303v87,0,171,-38,228,-99r40,51v-56,59,-160,114,-271,114","w":694},"D":{"d":"168,0v-43,0,-61,-18,-61,-61r0,-580r-65,0r0,-62r282,0v214,-2,353,136,353,352v0,216,-139,353,-353,351r-156,0xm604,-352v0,-181,-110,-290,-287,-289r-140,0r0,557v0,15,7,22,22,22r118,0v177,1,287,-109,287,-290","w":715},"E":{"d":"168,0v-43,0,-61,-18,-61,-61r0,-580r-65,0r0,-62r402,0v43,0,61,18,61,61r0,70r-66,0v-2,-28,10,-69,-22,-69r-240,0r0,256r264,0r0,62r-264,0r0,239v0,15,7,22,22,22r247,0v32,2,20,-41,22,-69r65,0r0,70v0,43,-18,61,-61,61r-304,0","w":558},"F":{"d":"416,-703v43,0,60,18,60,61r0,70r-65,0v-2,-28,10,-69,-22,-69r-212,0r0,264r255,0r0,62r-255,0r0,315r-70,0r0,-641r-65,0r0,-62r374,0","w":499},"G":{"d":"383,12v-193,4,-344,-165,-344,-362v0,-197,154,-365,346,-365v103,0,190,30,251,86r-41,52v-39,-35,-130,-72,-204,-72v-159,0,-279,134,-279,297v0,163,118,298,278,298v83,0,175,-46,222,-103r0,-87v2,-31,-38,-20,-65,-22r0,-62r70,0v43,0,61,18,61,61r0,267r-64,0r1,-83r-2,0v-35,49,-130,94,-230,95","w":730},"H":{"d":"581,-642v0,-43,17,-61,60,-61r75,0r0,62v-27,2,-65,-9,-65,22r0,619r-70,0r0,-321r-404,0r0,321r-70,0r0,-619v2,-31,-38,-20,-65,-22r0,-62r74,0v43,0,61,18,61,61r0,259r404,0r0,-259","w":757},"I":{"d":"46,0r0,-62r66,0r0,-579r-66,0r0,-62r201,0r0,62r-67,0r0,579r67,0r0,62r-201,0","w":293},"J":{"d":"222,12v-117,0,-203,-79,-198,-209r0,-28r70,0v-8,106,39,171,128,171v79,0,128,-55,128,-145r0,-420v0,-15,-7,-22,-22,-22r-174,0r0,-62r205,0v43,0,61,18,61,61r0,445v4,131,-80,209,-198,209","w":505},"K":{"d":"116,-703v43,0,61,18,61,61r0,244v53,-2,122,9,143,-25r170,-280r80,0r-181,295v-12,19,-24,32,-36,39r0,2v11,4,23,17,34,40r122,242v9,26,36,23,71,23r0,62v-34,0,-83,0,-99,-10v-12,-7,-24,-20,-35,-43r-128,-257v-13,-35,-90,-25,-141,-26r0,336r-70,0r0,-619v2,-31,-38,-20,-65,-22r0,-62r74,0","w":590},"L":{"d":"168,0v-43,0,-61,-18,-61,-61r0,-558v2,-31,-38,-20,-65,-22r0,-62r74,0v43,0,61,18,61,61r0,558v0,15,7,22,22,22r233,0v32,2,20,-41,22,-69r66,0r0,70v0,43,-18,61,-61,61r-291,0","w":530},"M":{"d":"22,0r0,-62v26,-1,57,7,59,-22r49,-619r71,0r186,409r35,83r2,0v12,-31,23,-59,34,-83r186,-409r71,0r49,619v-1,29,33,21,60,22r0,62v-40,-2,-95,7,-114,-14v-9,-9,-14,-25,-15,-47r-33,-427r-3,-98r-2,0v-13,41,-25,74,-36,98r-167,357r-63,0r-166,-357r-37,-100r-2,0v0,41,-1,75,-3,100r-33,427v-3,43,-16,60,-61,61r-67,0","w":845},"N":{"d":"177,-61v0,43,-18,61,-61,61r-74,0r0,-62v27,-2,65,9,65,-22r0,-619r64,0r359,501r57,92r2,0v-3,-37,-5,-67,-5,-92r0,-440v0,-43,18,-61,61,-61r74,0r0,62v-27,2,-65,-9,-65,22r0,619r-64,0r-359,-501r-58,-91r-2,0v4,36,6,66,6,91r0,440","w":760},"O":{"d":"396,12v-196,0,-358,-169,-358,-366v0,-197,162,-361,358,-361v196,0,358,164,358,361v0,197,-163,366,-358,366xm396,-649v-157,0,-285,134,-285,295v0,160,128,300,285,300v157,0,285,-140,285,-300v0,-161,-128,-295,-285,-295","w":791},"P":{"d":"556,-490v0,126,-92,214,-217,214r-162,0r0,276r-70,0r0,-641r-65,0r0,-62r297,0v125,-2,217,87,217,213xm484,-490v0,-93,-61,-152,-153,-151r-154,0r0,303r153,0v92,1,154,-59,154,-152","w":579},"Q":{"d":"386,12v-187,0,-348,-173,-348,-366v0,-198,161,-361,358,-361v193,0,358,163,358,353v0,96,-29,179,-88,248r86,86r-43,45r-86,-87v-64,55,-143,82,-237,82xm395,-648v-160,0,-284,132,-284,294v0,156,125,300,273,300v76,0,141,-22,190,-64r-84,-85r43,-45r83,86v43,-55,65,-122,65,-200v0,-154,-130,-286,-286,-286","w":791},"R":{"d":"542,-510v0,105,-57,177,-136,195r0,2v9,5,17,15,24,28r101,200v9,24,31,23,64,23r0,62v-33,0,-78,-1,-93,-10v-12,-7,-24,-20,-35,-43r-101,-201v-19,-33,-24,-42,-71,-42r-118,0r0,296r-70,0r0,-641r-65,0r0,-62r298,0v114,-3,202,81,202,193xm469,-500v0,-85,-52,-142,-135,-141r-157,0r0,283r156,0v84,1,136,-57,136,-142","w":605},"S":{"d":"263,-53v73,0,139,-51,138,-121v-1,-78,-64,-115,-122,-143v-100,-47,-225,-80,-225,-225v0,-98,103,-173,215,-173v65,0,116,17,155,49v36,29,37,65,35,122r-66,0r0,-33v-3,-50,-69,-73,-131,-73v-67,0,-136,47,-136,104v0,82,55,104,110,132v100,51,236,87,237,232v1,113,-93,194,-213,194v-80,0,-177,-43,-223,-100r43,-51v36,42,110,86,183,86","w":518},"T":{"d":"548,-703v43,1,56,14,57,57r0,74r-65,0v-2,-28,10,-69,-22,-69r-173,0r0,641r-70,0r0,-641r-174,0v-32,-2,-20,41,-22,69r-64,0r0,-74v1,-43,14,-56,57,-57r476,0","w":620},"U":{"d":"359,12v-151,0,-260,-102,-260,-253r0,-378v2,-31,-38,-20,-65,-22r0,-62r74,0v43,0,61,18,61,61r0,398v-2,115,74,190,189,190v115,0,190,-76,190,-192r0,-396v0,-43,18,-61,61,-61r74,0r0,62v-27,2,-65,-9,-65,22r0,378v2,151,-108,253,-259,253","w":717},"V":{"d":"58,-619v-6,-18,-22,-23,-46,-22r0,-62v31,0,70,0,84,11v10,8,20,23,29,47r173,473r27,91r2,0v9,-37,18,-67,27,-91r173,-473v18,-45,26,-57,83,-58r30,0r0,62v-23,-1,-39,5,-45,22r-231,619r-75,0","w":653},"W":{"d":"66,-619v-4,-18,-24,-24,-49,-22r0,-62v33,-1,73,0,89,11v12,8,21,24,27,47r122,485r15,75r2,0v6,-26,12,-51,19,-75r155,-540r69,0r141,540r16,75r2,0v5,-26,10,-51,16,-75r122,-485v13,-46,29,-57,85,-58r31,0r0,62v-25,-1,-44,4,-48,22r-162,619r-83,0r-131,-489r-23,-104r-2,0v-8,39,-16,73,-25,103r-144,490r-83,0","w":945},"X":{"d":"87,-615v-14,-23,-37,-28,-71,-26r0,-62v34,0,76,-1,94,11v12,8,26,22,40,45r90,151r45,80r2,0v41,-84,86,-154,133,-231v25,-42,37,-55,97,-56r37,0r0,62v-34,-2,-57,3,-71,26r-153,248r225,367r-80,0r-191,-319r-2,0v-57,113,-125,211,-187,319r-80,0r224,-367","w":570},"Y":{"d":"261,0r0,-306r-188,-309v-14,-22,-32,-28,-63,-26r0,-62v30,0,66,0,82,10v12,7,26,22,41,46r119,199r43,79r2,0v50,-98,106,-186,162,-278v26,-44,35,-54,96,-56r27,0r0,62v-31,-2,-49,4,-62,26r-189,309r0,306r-70,0","w":592},"Z":{"d":"547,-61v0,43,-18,61,-61,61r-467,0r0,-49r377,-528r24,-32r27,-32r0,-2v-11,1,-28,2,-51,2r-280,0v-32,-2,-20,41,-22,69r-65,0r0,-70v0,-43,18,-61,61,-61r443,0r0,49r-376,528v-22,29,-37,47,-45,56v-2,4,-6,5,-7,10v11,-1,29,-2,52,-2r303,0v32,2,20,-41,22,-69r65,0r0,70","w":575},"[":{"d":"162,95v-43,0,-61,-18,-61,-61r0,-703v0,-43,18,-61,61,-61r74,0r0,56v-29,3,-72,-11,-72,22r0,669v-2,33,43,19,72,22r0,56r-74,0","w":303},"\\":{"d":"259,42r-254,-784r64,0r253,784r-63,0","w":317},"]":{"d":"202,34v0,43,-18,61,-61,61r-74,0r0,-56v29,-3,72,11,72,-22r0,-669v2,-33,-43,-19,-72,-22r0,-56r74,0v43,0,61,18,61,61r0,703","w":303},"^":{"d":"73,-250r198,-453r47,0r198,453r-65,0r-156,-370r-156,370r-66,0"},"_":{"d":"5,0r516,0r0,58r-516,0r0,-58","w":526},"`":{"d":"180,-752r-87,-119r76,0r70,119r-59,0","w":360},"a":{"d":"212,12v-91,0,-172,-55,-172,-149v0,-115,103,-173,308,-173r28,0v1,-104,-30,-148,-130,-148v-34,0,-99,9,-98,44r0,32r-65,0r0,-48v4,-68,98,-84,164,-85v141,-3,197,63,197,193r0,241v-2,31,37,20,64,22r0,59r-69,0v-43,0,-60,-18,-60,-60r1,-37v-4,-1,0,3,-6,11v-28,51,-82,98,-162,98xm230,-46v89,-3,156,-107,146,-210v-63,-1,-146,4,-166,12v-55,22,-102,35,-100,108v1,53,52,92,120,90","w":529},"b":{"d":"542,-251v0,147,-88,263,-226,263v-74,0,-133,-37,-166,-97r-2,0v3,23,2,58,2,85r-66,0r0,-622v2,-31,-37,-20,-64,-22r0,-59r71,0v43,0,61,18,61,61r0,182r-2,41v5,-1,5,-8,8,-11v25,-47,88,-84,165,-85v139,-2,219,118,219,264xm314,-453v-100,0,-164,82,-164,193v0,111,52,212,156,212v103,0,166,-90,166,-202v0,-111,-57,-203,-158,-203","w":584},"c":{"d":"110,-251v0,117,88,203,202,201v58,0,110,-24,157,-71r32,51v-55,55,-121,82,-197,82v-150,0,-264,-111,-264,-262v0,-150,117,-265,265,-265v80,0,184,43,179,107r0,45r-64,0r0,-29v1,-41,-72,-62,-115,-62v-111,0,-195,88,-195,203","w":528},"d":{"d":"330,1v-171,53,-288,-83,-288,-253v0,-147,87,-263,226,-263v74,0,133,35,164,94r2,0v-5,-62,-2,-135,-2,-201v0,-31,-37,-20,-64,-22r0,-59r71,0v43,0,61,18,61,61r0,561v-2,31,37,20,64,22r0,59r-70,0v-54,2,-66,-37,-58,-88v-5,1,-5,8,-8,11v-17,35,-49,63,-98,78xm112,-252v0,111,57,203,158,203v101,0,164,-83,164,-194v0,-111,-52,-211,-156,-211v-103,0,-166,90,-166,202","w":588},"e":{"d":"111,-249v-2,118,84,201,199,200v57,0,106,-21,147,-62r33,51v-32,34,-120,72,-187,72v-149,0,-263,-114,-263,-266v0,-148,106,-261,246,-261v145,0,226,116,211,266r-386,0xm429,-303v-2,-93,-56,-155,-145,-155v-91,0,-159,68,-170,155r315,0","w":548},"f":{"d":"292,-645v-92,-10,-143,38,-136,142r128,0r0,57r-128,0r0,446r-68,0r0,-446r-63,0r0,-57r63,0v-4,-80,20,-147,66,-175v44,-26,83,-34,138,-28r0,61","w":305},"g":{"d":"271,-3v-143,2,-229,-112,-229,-258v0,-143,80,-255,218,-254v77,0,140,29,167,86r2,0v-3,-47,11,-75,57,-74r70,0r0,59v-27,2,-63,-8,-63,22r0,410v5,142,-103,221,-233,222v-63,0,-121,-13,-173,-40r26,-57v41,23,88,35,139,35v102,0,175,-53,173,-158r1,-80r-2,0v-31,58,-82,87,-153,87xm112,-262v0,109,59,198,160,198v107,0,154,-74,154,-197v0,-128,-53,-192,-159,-192v-104,0,-155,80,-155,191","w":579},"h":{"d":"342,-451v-113,0,-190,96,-190,210r0,241r-68,0r0,-622v2,-31,-37,-20,-64,-22r0,-59r71,0v42,0,61,17,61,59r0,213r-2,41r2,0v27,-64,104,-127,206,-125v118,3,162,72,162,195r0,239v-2,31,37,20,64,22r0,59r-71,0v-43,0,-61,-18,-61,-61r0,-241v-4,-103,-22,-149,-110,-149","w":605},"i":{"d":"90,-617r0,-86r66,0r0,86r-66,0xm153,0v-43,0,-61,-18,-61,-61r0,-361v2,-31,-37,-20,-64,-22r0,-59r71,0v43,0,61,18,61,61r0,361v-2,31,37,20,64,22r0,59r-71,0","w":251},"j":{"d":"114,-617r0,-86r65,0r0,86r-65,0xm122,-503v43,0,61,18,61,61r0,461v0,78,-22,131,-67,157v-43,25,-85,35,-137,27r0,-59v88,6,136,-33,136,-128r0,-438v2,-31,-37,-20,-64,-22r0,-59r71,0","w":268},"k":{"d":"91,-703v44,1,61,14,61,58r0,334v45,0,88,3,109,-24r129,-168r83,0r-145,184v-15,19,-27,31,-38,36r0,2v10,5,20,17,31,37r91,163v10,22,40,23,73,22r0,59v-34,0,-84,2,-101,-10v-11,-6,-22,-19,-33,-40r-100,-180v-11,-26,-60,-22,-99,-22r0,252r-68,0r0,-622v2,-31,-37,-20,-64,-22r0,-59r71,0","w":498},"l":{"d":"147,0v-43,0,-61,-18,-61,-61r0,-561v2,-31,-37,-20,-64,-22r0,-59r71,0v43,0,61,18,61,61r0,561v-2,31,37,20,64,22r0,59r-71,0","w":245},"m":{"d":"327,-453v-106,0,-172,110,-172,215r0,238r-68,0r0,-422v2,-31,-37,-20,-64,-22r0,-59r70,0v65,-4,65,54,59,115r2,0v21,-63,101,-128,182,-127v89,0,141,42,156,126r2,0v28,-69,99,-126,198,-126v103,0,154,65,154,195r0,239v-2,31,37,20,64,22r0,59r-71,0v-43,0,-61,-18,-61,-61r0,-242v-1,-88,-20,-150,-105,-150v-84,-1,-144,73,-163,142v-5,19,-9,43,-9,73r0,238r-68,0r0,-303v-3,-103,-20,-150,-106,-150","w":931},"n":{"d":"347,-451v-115,1,-192,93,-192,210r0,241r-68,0r0,-422v2,-31,-37,-20,-64,-22r0,-59r70,0v65,-4,65,54,59,115r2,0v28,-66,102,-129,206,-127v119,3,163,72,163,195r0,239v-2,31,37,20,64,22r0,59r-71,0v-43,0,-61,-18,-61,-61r0,-241v-2,-91,-17,-149,-108,-149","w":608},"o":{"d":"306,12v-144,0,-266,-120,-266,-265v0,-145,122,-262,266,-262v144,0,265,117,265,262v0,145,-121,265,-265,265xm306,-453v-108,0,-196,90,-196,200v0,110,88,204,196,204v108,0,195,-94,195,-204v0,-110,-87,-200,-195,-200","w":611},"p":{"d":"545,-251v0,146,-87,264,-225,263v-46,0,-84,-11,-112,-34v-31,-26,-43,-37,-53,-61r-2,0v1,12,2,27,2,44r0,239r-68,0r0,-622v2,-31,-37,-20,-64,-22r0,-59r69,0v40,0,60,18,60,53r-1,34v5,-1,4,-7,7,-10v28,-53,87,-88,168,-89v139,-2,219,118,219,264xm317,-453v-100,0,-164,82,-164,193v0,110,54,212,157,212v103,0,165,-90,165,-202v0,-111,-57,-203,-158,-203","w":587},"q":{"d":"329,2v-171,50,-286,-85,-286,-254v0,-147,87,-263,226,-263v79,0,143,49,166,97r2,0v-1,-9,-1,-20,-1,-33v0,-35,20,-52,60,-52r69,0r0,59v-27,2,-64,-9,-64,22r0,622r-68,0r0,-241r2,-44v-5,1,-4,8,-7,11v-19,35,-52,62,-99,76xm112,-252v0,111,58,203,159,203v101,0,164,-83,164,-194v0,-111,-53,-211,-157,-211v-103,0,-166,90,-166,202","w":588},"r":{"d":"154,-374v24,-77,85,-147,186,-131r0,67v-49,-7,-84,5,-116,34v-46,43,-69,107,-69,192r0,212r-68,0r0,-422v2,-31,-37,-20,-64,-22r0,-59r70,0v70,-5,64,64,59,129r2,0","w":362},"s":{"d":"68,-123v34,41,84,76,164,76v45,0,99,-30,97,-76v-2,-54,-54,-75,-99,-94v-78,-32,-180,-58,-183,-162v-2,-93,82,-136,179,-136v71,0,156,36,153,91r0,43r-64,0r0,-24v1,-35,-51,-51,-87,-51v-75,0,-112,24,-112,73v0,35,33,66,100,91v82,32,182,58,182,171v-1,79,-87,133,-176,133v-80,0,-149,-32,-193,-88","w":440},"t":{"d":"297,2v-130,13,-204,-55,-204,-185r0,-263r-66,0r0,-57r67,0r0,-139r67,0r0,139r126,0r0,57r-126,0r0,256v-1,92,47,141,136,131r0,61","w":335},"u":{"d":"450,-115v-28,64,-102,127,-203,127v-108,0,-162,-65,-162,-195r0,-239v2,-31,-37,-20,-64,-22r0,-59r71,0v42,0,61,17,61,59r0,243v3,96,18,149,118,149v101,0,177,-105,177,-210r0,-241r68,0r0,422v-2,31,37,20,64,22r0,59r-69,0v-65,4,-65,-54,-59,-115r-2,0","w":603},"v":{"d":"58,-421v-7,-18,-21,-24,-44,-23r0,-59v29,0,65,1,78,11v10,8,20,21,29,44r121,314r17,59r2,0v5,-23,11,-42,17,-59r121,-314v16,-50,41,-57,105,-55r0,59v-23,-1,-38,5,-44,23r-164,421r-74,0","w":518},"w":{"d":"58,-421v-6,-19,-23,-25,-48,-23r0,-59v31,0,73,0,88,11v10,8,19,22,26,45r103,319r15,54r2,0v5,-20,11,-38,16,-54r123,-373r68,0r123,373r16,54r2,0v34,-131,78,-248,118,-373v14,-45,24,-55,79,-56r35,0r0,59v-25,-1,-43,3,-49,23r-144,421r-75,0r-123,-358r-15,-54r-2,0v-5,19,-10,37,-16,54r-122,358r-76,0","w":834},"x":{"d":"85,-423v-13,-19,-36,-22,-67,-21r0,-59v32,0,76,-1,92,10v11,7,24,22,39,45r72,112r17,30r2,0v26,-51,58,-96,89,-142v29,-43,32,-53,94,-55r36,0r0,59v-30,-1,-55,3,-67,20r-109,162r176,262r-80,0r-123,-187r-16,-28r-2,0v-5,9,-11,19,-17,28r-123,187r-79,0r175,-262","w":477},"y":{"d":"40,111v13,20,48,38,75,38v39,0,69,-28,93,-82r30,-69r-177,-419v-8,-18,-21,-25,-45,-23r0,-59v29,0,67,0,80,11v9,8,19,21,28,44r129,314r18,54r2,0v5,-19,10,-37,17,-54r124,-314v18,-42,24,-54,78,-55r31,0r0,59v-24,-1,-38,5,-45,23r-217,526v-25,61,-70,105,-152,105v-38,0,-75,-17,-101,-49","w":539},"z":{"d":"473,-61v0,43,-18,61,-61,61r-373,0r0,-44r283,-353r40,-46r0,-2v-70,4,-159,2,-234,2v-30,0,-21,35,-22,61r-64,0r0,-60v0,-43,18,-61,61,-61r349,0r0,45r-282,352r-42,46r0,2v78,-5,176,-2,259,-2v30,0,21,-35,22,-61r64,0r0,60","w":499},"{":{"d":"282,96v-111,5,-165,-63,-164,-179r0,-95v-1,-61,-27,-103,-85,-114r0,-62v51,-12,85,-49,85,-115r0,-82v0,-117,51,-180,164,-179r0,56v-74,-1,-100,46,-101,125r0,98v0,58,-30,105,-80,127r0,2v48,15,80,62,80,127r0,110v-2,84,32,124,101,125r0,56","w":326},"|":{"d":"111,157r0,-945r63,0r0,945r-63,0","w":285},"}":{"d":"208,-83v0,115,-53,183,-164,179r0,-56v72,1,101,-47,101,-125r0,-110v-4,-68,38,-109,80,-127r0,-2v-46,-15,-80,-64,-80,-127r0,-98v-2,-82,-27,-125,-101,-125r0,-56v110,-8,163,66,164,179r0,82v0,64,29,103,85,115r0,62v-51,11,-85,49,-85,114r0,95","w":326},"~":{"d":"523,-360v3,91,-40,152,-116,155v-58,2,-97,-23,-120,-52v-28,-34,-56,-52,-86,-52v-50,0,-75,33,-75,100r-59,0v-1,-96,40,-153,127,-155v38,0,70,11,94,36v26,27,61,68,104,68v54,0,71,-50,72,-100r59,0"},"\u00a0":{"w":272},"\u00a1":{"d":"109,-426r0,-77r77,0r0,77r-77,0xm113,200r3,-519r64,0r3,519r-70,0","w":297},"\u00a2":{"d":"126,-352v0,121,49,216,169,215v58,0,102,-36,133,-108r64,25v-41,91,-100,141,-179,148r0,111r-57,0r0,-111v-128,-13,-201,-136,-201,-280v0,-145,73,-266,201,-279r0,-111r57,0r0,111v81,9,140,59,179,148r-64,24v-31,-72,-77,-108,-140,-108v-112,-1,-163,98,-162,215","w":545},"\u00a3":{"d":"537,-61v0,43,-18,61,-61,61r-422,0r0,-62r63,0r0,-264r-45,0r0,-55r45,0r0,-149v-2,-107,94,-185,205,-185v60,0,114,21,158,57r-43,50v-32,-28,-70,-42,-113,-42v-80,0,-137,50,-137,124r0,145r191,0r0,55r-191,0r0,264r263,0v32,2,20,-41,22,-69r65,0r0,70","w":582},"\u00a5":{"d":"107,-213r0,-52r162,0r0,-41r-29,-46r-137,0r0,-51r105,0r0,-2r-131,-214v-10,-18,-31,-23,-60,-22r0,-62v70,-2,94,8,123,56r119,199r43,78r2,0v51,-97,110,-183,163,-277v27,-48,52,-57,122,-56r0,62v-29,-1,-50,4,-60,22r-130,214r0,2r100,0r0,51r-133,0r-27,46r0,41r160,0r0,52r-160,0r0,213r-70,0r0,-213r-162,0","w":607},"\u00a7":{"d":"245,-655v-73,-2,-118,58,-106,138r66,432r-60,0r-68,-434v-24,-108,58,-195,163,-195v48,0,88,14,121,41r-35,47v-23,-19,-50,-29,-81,-29xm345,-134v23,114,-60,196,-164,196v-48,-1,-88,-15,-121,-42r35,-48v23,20,51,30,82,30v73,1,117,-61,105,-141r-65,-429r60,0","w":415},"\u00a8":{"d":"307,-785r0,-86r59,0r0,86r-59,0xm157,-785r0,-86r59,0r0,86r-59,0","w":493},"\u00a9":{"d":"396,12v-194,0,-355,-169,-355,-364v0,-195,162,-363,355,-363v193,0,356,169,356,364v0,196,-162,363,-356,363xm396,-661v-166,0,-296,142,-296,309v0,168,130,310,296,310v165,0,298,-143,298,-310v0,-168,-133,-309,-298,-309xm198,-350v0,-113,87,-206,206,-206v64,0,132,42,163,93r-46,31v-31,-46,-69,-69,-115,-69v-88,0,-149,66,-149,150v0,83,60,150,147,150v45,0,84,-23,117,-69r46,31v-30,45,-89,93,-163,93v-120,0,-206,-91,-206,-204","w":793},"\u00aa":{"d":"265,-439v-13,30,-53,57,-102,57v-51,0,-103,-41,-103,-96v0,-77,76,-113,203,-110v-3,-58,-18,-77,-78,-77v-43,0,-48,9,-45,44r-53,0v0,-34,-5,-58,22,-72v23,-12,54,-20,94,-20v77,0,115,41,115,123r0,142v0,16,25,7,38,9r0,51r-47,0v-32,0,-44,-18,-42,-51r-2,0xm117,-481v0,33,26,52,65,51v50,-1,81,-61,82,-114r-12,0v-90,0,-135,21,-135,63xm58,-264r0,-47r303,0r0,47r-303,0","w":414},"\u00ab":{"d":"217,-282r164,-206r74,0r-164,206r164,205r-74,0xm202,-77r-164,-205r164,-206r73,0r-164,206r164,205r-73,0","w":522},"\u00ac":{"d":"70,-342r0,-58r466,0r0,242r-61,0r0,-184r-405,0"},"\u00ad":{"d":"74,-253r0,-62r284,0r0,62r-284,0","w":432},"\u00ae":{"d":"396,12v-194,0,-355,-169,-355,-364v0,-195,162,-363,355,-363v193,0,356,169,356,364v0,196,-162,363,-356,363xm396,-661v-166,0,-296,142,-296,309v0,168,130,310,296,310v165,0,298,-143,298,-310v0,-168,-133,-309,-298,-309xm532,-436v0,58,-31,97,-73,108r0,2v7,3,14,10,20,21r45,90v4,11,19,14,37,13r0,45v-22,0,-50,2,-63,-5v-8,-4,-15,-12,-22,-25r-54,-106v-13,-30,-52,-20,-90,-22r0,158r-56,0r0,-343r-36,0r0,-47r175,0v66,-2,117,48,117,111xm474,-430v0,-44,-26,-70,-69,-70r-73,0r0,141r73,0v43,0,69,-27,69,-71","w":793},"\u00af":{"d":"112,-785r0,-54r246,0r0,54r-246,0","w":461},"\u02c9":{"d":"112,-785r0,-54r246,0r0,54r-246,0","w":461},"\u00b0":{"d":"332,-574v0,75,-65,138,-140,138v-76,0,-141,-63,-141,-138v0,-75,65,-140,140,-140v75,0,141,65,141,140xm111,-574v0,45,36,82,80,82v44,0,82,-37,82,-82v0,-45,-38,-84,-82,-84v-45,0,-80,40,-80,84","w":383},"\u00b1":{"d":"42,-255r0,-58r231,0r0,-255r61,0r0,255r230,0r0,58r-230,0r0,255r-61,0r0,-255r-231,0xm60,104r486,0r0,58r-486,0r0,-58"},"\u00b2":{"d":"208,-711v69,0,125,55,125,126v0,128,-155,140,-209,217v-11,14,-16,29,-16,45v0,4,3,6,9,6r175,0v4,0,6,-2,6,-7r0,-35r54,0r0,50v0,29,-15,44,-44,44r-212,0v-36,-1,-45,-13,-45,-51v0,-135,152,-141,208,-221v11,-15,16,-32,16,-51v1,-38,-35,-69,-75,-69v-34,0,-70,14,-72,40r0,26r-54,0r0,-39v0,-57,73,-81,134,-81","w":409},"\u00b3":{"d":"345,-394v0,73,-70,137,-137,137v-73,0,-126,-35,-158,-72r40,-39v21,26,67,57,112,57v42,1,85,-40,85,-86v0,-50,-44,-82,-94,-81r-35,0r-10,-34r96,-117r23,-24r0,-2v-39,6,-87,2,-131,3v-16,0,-8,25,-10,39r-54,0r0,-43v1,-36,11,-47,47,-47r221,0r0,39r-118,138v63,5,123,58,123,132","w":409},"\u00b4":{"d":"115,-752r70,-119r76,0r-87,119r-59,0","w":371},"\u00b5":{"d":"449,-115v-30,88,-143,153,-260,117v-27,-8,-34,-17,-46,-32r-2,0v13,83,5,144,7,230r-63,0r0,-622v2,-31,-37,-20,-64,-22r0,-59r71,0v42,0,61,17,61,59r0,243v3,96,18,149,118,149v101,0,177,-105,177,-210r0,-241r68,0r0,422v-2,31,37,20,64,22r0,59r-69,0v-65,4,-65,-54,-59,-115r-3,0","w":603},"\u03bc":{"d":"449,-115v-30,88,-143,153,-260,117v-27,-8,-34,-17,-46,-32r-2,0v13,83,5,144,7,230r-63,0r0,-622v2,-31,-37,-20,-64,-22r0,-59r71,0v42,0,61,17,61,59r0,243v3,96,18,149,118,149v101,0,177,-105,177,-210r0,-241r68,0r0,422v-2,31,37,20,64,22r0,59r-69,0v-65,4,-65,-54,-59,-115r-3,0","w":603},"\u00b6":{"d":"43,-473v0,-127,112,-230,238,-230r239,0r0,62r-181,0r0,691r-57,0r0,-291v-126,3,-239,-106,-239,-232xm401,50r0,-631r58,0r0,631r-58,0","w":574},"\u00b7":{"d":"69,-248r0,-80r77,0r0,80r-77,0","w":215},"\u2219":{"d":"69,-248r0,-80r77,0r0,80r-77,0","w":215},"\u00b8":{"d":"186,55v47,7,71,33,71,77v1,48,-47,74,-97,73r-49,-5r0,-48v32,11,98,9,93,-28v3,-27,-34,-37,-72,-33r26,-111r40,7v-1,26,-8,45,-12,68","w":413},"\u00b9":{"d":"80,-265r0,-52r94,0r1,-309r-2,0v-15,25,-39,41,-58,62r-36,-37r102,-102r51,0r0,386r93,0r0,52r-245,0","w":409},"\u00ba":{"d":"395,-549v0,91,-76,166,-167,166v-91,0,-167,-75,-167,-166v0,-91,77,-165,167,-165v90,0,167,74,167,165xm116,-550v0,63,50,116,112,116v62,0,112,-53,112,-116v0,-64,-50,-114,-112,-114v-62,0,-112,50,-112,114xm78,-264r0,-47r303,0r0,47r-303,0","w":456},"\u00bb":{"d":"246,-77r164,-205r-164,-206r74,0r164,206r-164,205r-74,0xm66,-77r164,-205r-164,-206r74,0r164,206r-164,205r-74,0","w":522},"\u00bc":{"d":"269,0r297,-703r62,0r-296,703r-63,0xm78,-265r0,-52r94,0r1,-309r-2,0v-15,25,-39,41,-58,62r-36,-37r102,-102r50,0r0,386r92,0r0,52r-243,0xm496,-117r0,-37r208,-284r60,0r0,269r67,0r0,52r-67,0r0,117r-57,0r0,-117r-211,0xm564,-168r144,-1r1,-192r-2,0v-38,64,-87,117,-129,176v-4,6,-11,10,-14,17","w":890},"\u00bd":{"d":"258,0r297,-703r62,0r-296,703r-63,0xm78,-265r0,-52r94,0r1,-309r-2,0v-15,25,-39,41,-58,62r-36,-37r102,-102r50,0r0,386r92,0r0,52r-243,0xm564,0v-36,-1,-45,-14,-45,-52v1,-136,152,-140,208,-220v11,-15,16,-31,16,-50v1,-38,-35,-70,-75,-70v-34,0,-70,14,-72,40r0,25r-54,0r0,-38v0,-58,73,-81,134,-81v69,0,126,55,125,126v-2,117,-132,141,-193,199v-20,18,-31,38,-31,62v0,5,3,7,8,7r175,0v4,0,6,-2,6,-7r0,-35r54,0r0,50v0,29,-15,44,-44,44r-212,0","w":890},"\u00be":{"d":"268,0r297,-703r62,0r-296,703r-63,0xm357,-394v0,73,-70,137,-137,137v-73,0,-126,-35,-158,-72r40,-39v21,26,67,57,112,57v42,1,85,-40,85,-86v0,-50,-44,-82,-94,-81r-35,0r-10,-34r96,-117r23,-24r0,-2v-39,6,-87,2,-131,3v-16,0,-8,25,-10,39r-54,0r0,-43v1,-36,11,-47,47,-47r221,0r0,39r-118,138v63,5,123,58,123,132xm496,-117r0,-37r208,-284r60,0r0,269r67,0r0,52r-67,0r0,117r-57,0r0,-117r-211,0xm564,-168r144,-1r1,-192r-2,0v-38,64,-87,117,-129,176v-4,6,-11,10,-14,17","w":890},"\u00bf":{"d":"205,-426r0,-77r77,0r0,77r-77,0xm231,210v-110,0,-202,-72,-200,-180v0,-53,21,-100,63,-141r52,-48v54,-49,68,-82,64,-160r67,0v4,84,-10,132,-61,183r-52,48v-41,38,-61,75,-61,112v0,67,57,121,117,121v58,0,103,-15,135,-42r37,50v-32,27,-102,57,-161,57","w":431},"\u00c0":{"d":"12,0r0,-62v25,1,43,-3,49,-22r230,-619r75,0r230,619v6,18,23,24,48,22r0,62v-31,0,-72,0,-86,-11v-10,-8,-20,-23,-29,-47r-61,-166r-279,0r-62,166v-19,44,-25,57,-82,58r-33,0xm208,-285r241,0r-93,-251r-27,-91r-2,0v-34,130,-78,223,-119,342xm299,-752r-87,-119r76,0r70,119r-59,0","w":657},"\u00c1":{"d":"12,0r0,-62v25,1,43,-3,49,-22r230,-619r75,0r230,619v6,18,23,24,48,22r0,62v-31,0,-72,0,-86,-11v-10,-8,-20,-23,-29,-47r-61,-166r-279,0r-62,166v-19,44,-25,57,-82,58r-33,0xm208,-285r241,0r-93,-251r-27,-91r-2,0v-34,130,-78,223,-119,342xm299,-752r70,-119r76,0r-87,119r-59,0","w":657},"\u00c2":{"d":"12,0r0,-62v25,1,43,-3,49,-22r230,-619r75,0r230,619v6,18,23,24,48,22r0,62v-31,0,-72,0,-86,-11v-10,-8,-20,-23,-29,-47r-61,-166r-279,0r-62,166v-19,44,-25,57,-82,58r-33,0xm208,-285r241,0r-93,-251r-27,-91r-2,0v-34,130,-78,223,-119,342xm211,-752r83,-119r70,0r83,119r-63,0r-54,-81r-2,0r-54,81r-63,0","w":657},"\u00c3":{"d":"12,0r0,-62v25,1,43,-3,49,-22r230,-619r75,0r230,619v6,18,23,24,48,22r0,62v-31,0,-72,0,-86,-11v-10,-8,-20,-23,-29,-47r-61,-166r-279,0r-62,166v-19,44,-25,57,-82,58r-33,0xm208,-285r241,0r-93,-251r-27,-91r-2,0v-34,130,-78,223,-119,342xm171,-755v0,-78,31,-117,93,-117v42,-1,68,33,90,54v37,35,79,17,76,-51r53,0v0,78,-31,117,-93,117v-41,1,-68,-34,-90,-54v-36,-34,-81,-17,-77,51r-52,0","w":657},"\u00c4":{"d":"12,0r0,-62v25,1,43,-3,49,-22r230,-619r75,0r230,619v6,18,23,24,48,22r0,62v-31,0,-72,0,-86,-11v-10,-8,-20,-23,-29,-47r-61,-166r-279,0r-62,166v-19,44,-25,57,-82,58r-33,0xm208,-285r241,0r-93,-251r-27,-91r-2,0v-34,130,-78,223,-119,342xm375,-785r0,-86r59,0r0,86r-59,0xm225,-785r0,-86r59,0r0,86r-59,0","w":657},"\u00c5":{"d":"12,0r0,-62v25,1,43,-3,49,-22r230,-619r75,0r230,619v6,18,23,24,48,22r0,62v-31,0,-72,0,-86,-11v-10,-8,-20,-23,-29,-47r-61,-166r-279,0r-62,166v-19,44,-25,57,-82,58r-33,0xm208,-285r241,0r-93,-251r-27,-91r-2,0v-34,130,-78,223,-119,342xm403,-812v0,41,-34,71,-74,71v-40,0,-74,-30,-74,-71v0,-41,34,-71,74,-71v40,0,74,30,74,71xm296,-812v0,19,13,33,32,33v19,0,34,-14,34,-33v0,-19,-15,-34,-33,-34v-18,0,-33,15,-33,34","w":657},"\u00c6":{"d":"450,0v-51,-1,-69,-11,-70,-61r0,-262r-159,0r-100,265v-18,45,-25,57,-82,58r-27,0r0,-62v23,1,39,-5,45,-22r238,-619r414,0v43,0,61,18,61,61r0,70r-66,0v-2,-28,10,-69,-22,-69r-232,0r0,256r256,0r0,62r-256,0r0,239v0,19,9,22,28,22r233,0v32,2,20,-41,22,-69r66,0r0,70v0,43,-18,61,-61,61r-288,0xm380,-385r0,-256r-40,0r-96,256r136,0","w":823},"\u00c7":{"d":"350,10v-181,-13,-312,-173,-312,-370v0,-194,153,-355,347,-355v99,0,194,36,237,81v31,31,26,71,26,126r-66,0v4,-64,-6,-87,-63,-113v-42,-19,-86,-28,-132,-28v-158,-3,-276,130,-276,292v0,161,117,303,276,303v85,0,180,-43,233,-98r40,50v-57,62,-149,109,-266,114r-9,43v41,7,70,29,70,77v1,49,-46,74,-96,73r-49,-5r0,-48v32,11,97,9,92,-28v3,-26,-34,-37,-71,-33","w":694},"\u00c8":{"d":"168,0v-43,0,-61,-18,-61,-61r0,-580r-65,0r0,-62r402,0v43,0,61,18,61,61r0,70r-66,0v-2,-28,10,-69,-22,-69r-240,0r0,256r264,0r0,62r-264,0r0,239v0,15,7,22,22,22r247,0v32,2,20,-41,22,-69r65,0r0,70v0,43,-18,61,-61,61r-304,0xm264,-752r-87,-119r76,0r70,119r-59,0","w":558},"\u00c9":{"d":"168,0v-43,0,-61,-18,-61,-61r0,-580r-65,0r0,-62r402,0v43,0,61,18,61,61r0,70r-66,0v-2,-28,10,-69,-22,-69r-240,0r0,256r264,0r0,62r-264,0r0,239v0,15,7,22,22,22r247,0v32,2,20,-41,22,-69r65,0r0,70v0,43,-18,61,-61,61r-304,0xm264,-752r70,-119r76,0r-87,119r-59,0","w":558},"\u00ca":{"d":"168,0v-43,0,-61,-18,-61,-61r0,-580r-65,0r0,-62r402,0v43,0,61,18,61,61r0,70r-66,0v-2,-28,10,-69,-22,-69r-240,0r0,256r264,0r0,62r-264,0r0,239v0,15,7,22,22,22r247,0v32,2,20,-41,22,-69r65,0r0,70v0,43,-18,61,-61,61r-304,0xm176,-752r83,-119r70,0r83,119r-63,0r-54,-81r-2,0r-54,81r-63,0","w":558},"\u00cb":{"d":"168,0v-43,0,-61,-18,-61,-61r0,-580r-65,0r0,-62r402,0v43,0,61,18,61,61r0,70r-66,0v-2,-28,10,-69,-22,-69r-240,0r0,256r264,0r0,62r-264,0r0,239v0,15,7,22,22,22r247,0v32,2,20,-41,22,-69r65,0r0,70v0,43,-18,61,-61,61r-304,0xm340,-785r0,-86r59,0r0,86r-59,0xm190,-785r0,-86r59,0r0,86r-59,0","w":558},"\u00cc":{"d":"46,0r0,-62r66,0r0,-579r-66,0r0,-62r201,0r0,62r-67,0r0,579r67,0r0,62r-201,0xm116,-752r-87,-119r76,0r70,119r-59,0","w":293},"\u00cd":{"d":"46,0r0,-62r66,0r0,-579r-66,0r0,-62r201,0r0,62r-67,0r0,579r67,0r0,62r-201,0xm116,-752r70,-119r76,0r-87,119r-59,0","w":293},"\u00ce":{"d":"46,0r0,-62r66,0r0,-579r-66,0r0,-62r201,0r0,62r-67,0r0,579r67,0r0,62r-201,0xm28,-752r83,-119r70,0r83,119r-63,0r-54,-81r-2,0r-54,81r-63,0","w":293},"\u00cf":{"d":"46,0r0,-62r66,0r0,-579r-66,0r0,-62r201,0r0,62r-67,0r0,579r67,0r0,62r-201,0xm192,-785r0,-86r59,0r0,86r-59,0xm42,-785r0,-86r59,0r0,86r-59,0","w":293},"\u00d0":{"d":"168,0v-43,0,-61,-18,-61,-61r0,-262r-50,0r0,-60r50,0r0,-258r-65,0r0,-62r282,0v214,-2,353,136,353,352v0,216,-139,353,-353,351r-156,0xm604,-352v0,-181,-110,-290,-287,-289r-140,0r0,258r164,0r0,60r-164,0r0,239v0,15,7,22,22,22r118,0v177,1,287,-109,287,-290","w":715},"\u00d1":{"d":"177,-61v0,43,-18,61,-61,61r-74,0r0,-62v27,-2,65,9,65,-22r0,-619r64,0r359,501r57,92r2,0v-3,-37,-5,-67,-5,-92r0,-440v0,-43,18,-61,61,-61r74,0r0,62v-27,2,-65,-9,-65,22r0,619r-64,0r-359,-501r-58,-91r-2,0v4,36,6,66,6,91r0,440xm233,-755v0,-78,31,-117,93,-117v42,-1,68,33,90,54v37,35,79,17,76,-51r53,0v0,78,-31,117,-93,117v-41,1,-68,-34,-90,-54v-36,-34,-81,-17,-77,51r-52,0","w":760},"\u00d2":{"d":"396,12v-196,0,-358,-169,-358,-366v0,-197,162,-361,358,-361v196,0,358,164,358,361v0,197,-163,366,-358,366xm396,-649v-157,0,-285,134,-285,295v0,160,128,300,285,300v157,0,285,-140,285,-300v0,-161,-128,-295,-285,-295xm363,-752r-87,-119r76,0r70,119r-59,0","w":791},"\u00d3":{"d":"396,12v-196,0,-358,-169,-358,-366v0,-197,162,-361,358,-361v196,0,358,164,358,361v0,197,-163,366,-358,366xm396,-649v-157,0,-285,134,-285,295v0,160,128,300,285,300v157,0,285,-140,285,-300v0,-161,-128,-295,-285,-295xm363,-752r70,-119r76,0r-87,119r-59,0","w":791},"\u00d4":{"d":"396,12v-196,0,-358,-169,-358,-366v0,-197,162,-361,358,-361v196,0,358,164,358,361v0,197,-163,366,-358,366xm396,-649v-157,0,-285,134,-285,295v0,160,128,300,285,300v157,0,285,-140,285,-300v0,-161,-128,-295,-285,-295xm275,-752r83,-119r70,0r83,119r-63,0r-54,-81r-2,0r-54,81r-63,0","w":791},"\u00d5":{"d":"396,12v-196,0,-358,-169,-358,-366v0,-197,162,-361,358,-361v196,0,358,164,358,361v0,197,-163,366,-358,366xm396,-649v-157,0,-285,134,-285,295v0,160,128,300,285,300v157,0,285,-140,285,-300v0,-161,-128,-295,-285,-295xm235,-755v0,-78,31,-117,93,-117v42,-1,68,33,90,54v37,35,79,17,76,-51r53,0v0,78,-31,117,-93,117v-41,1,-68,-34,-90,-54v-36,-34,-81,-17,-77,51r-52,0","w":791},"\u00d6":{"d":"396,12v-196,0,-358,-169,-358,-366v0,-197,162,-361,358,-361v196,0,358,164,358,361v0,197,-163,366,-358,366xm396,-649v-157,0,-285,134,-285,295v0,160,128,300,285,300v157,0,285,-140,285,-300v0,-161,-128,-295,-285,-295xm439,-785r0,-86r59,0r0,86r-59,0xm289,-785r0,-86r59,0r0,86r-59,0","w":791},"\u00d7":{"d":"48,-41r216,-243r-216,-243r41,-41r214,241r214,-241r41,41r-217,243r217,243r-41,41r-214,-241r-214,241"},"\u00d8":{"d":"165,-74v-71,-61,-124,-159,-126,-282v-4,-196,163,-359,358,-359v68,0,131,18,189,54r48,-67r41,30r-47,66v85,73,127,163,127,270v0,204,-160,374,-358,374v-70,0,-134,-19,-191,-56r-48,68r-42,-29xm397,-649v-160,-2,-285,134,-285,300v0,87,32,160,95,218r340,-475v-47,-29,-97,-43,-150,-43xm397,-54v159,0,285,-141,285,-305v0,-87,-32,-158,-96,-215r-340,475v47,30,98,45,151,45","w":794},"\u00d9":{"d":"359,12v-151,0,-260,-102,-260,-253r0,-378v2,-31,-38,-20,-65,-22r0,-62r74,0v43,0,61,18,61,61r0,398v-2,115,74,190,189,190v115,0,190,-76,190,-192r0,-396v0,-43,18,-61,61,-61r74,0r0,62v-27,2,-65,-9,-65,22r0,378v2,151,-108,253,-259,253xm330,-752r-87,-119r76,0r70,119r-59,0","w":717},"\u00da":{"d":"359,12v-151,0,-260,-102,-260,-253r0,-378v2,-31,-38,-20,-65,-22r0,-62r74,0v43,0,61,18,61,61r0,398v-2,115,74,190,189,190v115,0,190,-76,190,-192r0,-396v0,-43,18,-61,61,-61r74,0r0,62v-27,2,-65,-9,-65,22r0,378v2,151,-108,253,-259,253xm330,-752r70,-119r76,0r-87,119r-59,0","w":717},"\u00db":{"d":"359,12v-151,0,-260,-102,-260,-253r0,-378v2,-31,-38,-20,-65,-22r0,-62r74,0v43,0,61,18,61,61r0,398v-2,115,74,190,189,190v115,0,190,-76,190,-192r0,-396v0,-43,18,-61,61,-61r74,0r0,62v-27,2,-65,-9,-65,22r0,378v2,151,-108,253,-259,253xm242,-752r83,-119r70,0r83,119r-63,0r-54,-81r-2,0r-54,81r-63,0","w":717},"\u00dc":{"d":"359,12v-151,0,-260,-102,-260,-253r0,-378v2,-31,-38,-20,-65,-22r0,-62r74,0v43,0,61,18,61,61r0,398v-2,115,74,190,189,190v115,0,190,-76,190,-192r0,-396v0,-43,18,-61,61,-61r74,0r0,62v-27,2,-65,-9,-65,22r0,378v2,151,-108,253,-259,253xm406,-785r0,-86r59,0r0,86r-59,0xm256,-785r0,-86r59,0r0,86r-59,0","w":717},"\u00dd":{"d":"261,0r0,-306r-188,-309v-14,-22,-32,-28,-63,-26r0,-62v30,0,66,0,82,10v12,7,26,22,41,46r119,199r43,79r2,0v50,-98,106,-186,162,-278v26,-44,35,-54,96,-56r27,0r0,62v-31,-2,-49,4,-62,26r-189,309r0,306r-70,0xm267,-752r70,-119r76,0r-87,119r-59,0","w":592},"\u00de":{"d":"556,-366v0,127,-93,215,-219,215r-160,0r0,151r-70,0r0,-619v2,-31,-38,-20,-65,-22r0,-62r74,0v43,0,61,18,61,61r0,64r162,0v125,-2,217,86,217,212xm484,-365v0,-93,-60,-152,-153,-151r-154,0r0,303r153,0v93,1,154,-59,154,-152","w":584},"\u00df":{"d":"151,-61v0,43,-18,61,-61,61r-70,0r0,-59v27,-2,63,8,63,-22r0,-450v-4,-110,94,-184,199,-184v118,0,218,103,160,211v-12,20,-25,36,-38,47v-37,31,-56,56,-56,75v0,49,62,80,98,104v45,30,98,81,97,158v-1,83,-79,132,-171,132v-53,0,-105,-20,-146,-58r25,-53v22,23,84,50,131,50v47,0,96,-30,92,-79v-7,-96,-115,-117,-166,-176v-34,-40,-38,-82,-12,-125v12,-17,24,-32,38,-43v37,-32,55,-61,55,-88v0,-57,-46,-93,-109,-93v-70,0,-129,52,-129,127r0,465","w":558},"\u00e0":{"d":"212,12v-91,0,-172,-55,-172,-149v0,-115,103,-173,308,-173r28,0v1,-104,-30,-148,-130,-148v-34,0,-99,9,-98,44r0,32r-65,0r0,-48v4,-68,98,-84,164,-85v141,-3,197,63,197,193r0,241v-2,31,37,20,64,22r0,59r-69,0v-43,0,-60,-18,-60,-60r1,-37v-4,-1,0,3,-6,11v-28,51,-82,98,-162,98xm230,-46v89,-3,156,-107,146,-210v-63,-1,-146,4,-166,12v-55,22,-102,35,-100,108v1,53,52,92,120,90xm230,-584r-87,-119r76,0r70,119r-59,0","w":529},"\u00e1":{"d":"212,12v-91,0,-172,-55,-172,-149v0,-115,103,-173,308,-173r28,0v1,-104,-30,-148,-130,-148v-34,0,-99,9,-98,44r0,32r-65,0r0,-48v4,-68,98,-84,164,-85v141,-3,197,63,197,193r0,241v-2,31,37,20,64,22r0,59r-69,0v-43,0,-60,-18,-60,-60r1,-37v-4,-1,0,3,-6,11v-28,51,-82,98,-162,98xm230,-46v89,-3,156,-107,146,-210v-63,-1,-146,4,-166,12v-55,22,-102,35,-100,108v1,53,52,92,120,90xm230,-584r70,-119r76,0r-87,119r-59,0","w":529},"\u00e2":{"d":"212,12v-91,0,-172,-55,-172,-149v0,-115,103,-173,308,-173r28,0v1,-104,-30,-148,-130,-148v-34,0,-99,9,-98,44r0,32r-65,0r0,-48v4,-68,98,-84,164,-85v141,-3,197,63,197,193r0,241v-2,31,37,20,64,22r0,59r-69,0v-43,0,-60,-18,-60,-60r1,-37v-4,-1,0,3,-6,11v-28,51,-82,98,-162,98xm230,-46v89,-3,156,-107,146,-210v-63,-1,-146,4,-166,12v-55,22,-102,35,-100,108v1,53,52,92,120,90xm142,-584r83,-119r70,0r83,119r-63,0r-54,-81r-2,0r-54,81r-63,0","w":529},"\u00e3":{"d":"212,12v-91,0,-172,-55,-172,-149v0,-115,103,-173,308,-173r28,0v1,-104,-30,-148,-130,-148v-34,0,-99,9,-98,44r0,32r-65,0r0,-48v4,-68,98,-84,164,-85v141,-3,197,63,197,193r0,241v-2,31,37,20,64,22r0,59r-69,0v-43,0,-60,-18,-60,-60r1,-37v-4,-1,0,3,-6,11v-28,51,-82,98,-162,98xm230,-46v89,-3,156,-107,146,-210v-63,-1,-146,4,-166,12v-55,22,-102,35,-100,108v1,53,52,92,120,90xm102,-587v0,-78,31,-117,93,-117v42,-1,68,33,90,54v37,35,79,17,76,-51r53,0v0,78,-31,117,-93,117v-41,1,-69,-34,-91,-54v-36,-34,-80,-17,-76,51r-52,0","w":529},"\u00e4":{"d":"212,12v-91,0,-172,-55,-172,-149v0,-115,103,-173,308,-173r28,0v1,-104,-30,-148,-130,-148v-34,0,-99,9,-98,44r0,32r-65,0r0,-48v4,-68,98,-84,164,-85v141,-3,197,63,197,193r0,241v-2,31,37,20,64,22r0,59r-69,0v-43,0,-60,-18,-60,-60r1,-37v-4,-1,0,3,-6,11v-28,51,-82,98,-162,98xm230,-46v89,-3,156,-107,146,-210v-63,-1,-146,4,-166,12v-55,22,-102,35,-100,108v1,53,52,92,120,90xm306,-617r0,-86r59,0r0,86r-59,0xm156,-617r0,-86r59,0r0,86r-59,0","w":529},"\u00e5":{"d":"212,12v-91,0,-172,-55,-172,-149v0,-115,103,-173,308,-173r28,0v1,-104,-30,-148,-130,-148v-34,0,-99,9,-98,44r0,32r-65,0r0,-48v4,-68,98,-84,164,-85v141,-3,197,63,197,193r0,241v-2,31,37,20,64,22r0,59r-69,0v-43,0,-60,-18,-60,-60r1,-37v-4,-1,0,3,-6,11v-28,51,-82,98,-162,98xm230,-46v89,-3,156,-107,146,-210v-63,-1,-146,4,-166,12v-55,22,-102,35,-100,108v1,53,52,92,120,90xm334,-644v0,41,-34,71,-74,71v-40,0,-74,-30,-74,-71v0,-41,34,-71,74,-71v40,0,74,30,74,71xm227,-644v0,19,14,33,33,33v19,0,33,-14,33,-33v0,-19,-15,-34,-33,-34v-18,0,-33,15,-33,34","w":529},"\u00e6":{"d":"441,-251v0,121,74,202,192,202v57,0,106,-21,147,-62r32,51v-38,38,-119,74,-199,72v-96,-2,-178,-63,-208,-140r-2,0v-19,70,-95,140,-190,140v-94,0,-173,-55,-173,-149v0,-108,83,-164,250,-167r85,-1v2,-105,-28,-153,-129,-153v-36,0,-99,9,-98,44r0,32r-65,0r0,-48v0,-63,95,-85,164,-85v94,0,152,35,174,104r2,0v41,-69,105,-104,190,-104v141,-1,223,116,205,264r-377,0xm751,-305v-2,-91,-58,-152,-145,-152v-89,0,-149,65,-160,152r305,0xm230,-46v88,-2,154,-106,146,-205r-59,0v-99,0,-161,17,-188,50v-13,16,-19,36,-19,61v2,58,50,96,120,94","w":871},"\u00e7":{"d":"110,-251v0,117,88,203,202,201v58,0,110,-24,157,-71r32,51v-55,55,-121,82,-199,82r-8,43v41,7,70,29,70,77v1,49,-46,74,-96,73r-50,-5r0,-48v32,11,98,9,93,-28v3,-27,-34,-37,-72,-33r19,-83v-126,-17,-218,-119,-218,-264v0,-144,119,-259,265,-259v80,0,184,43,179,107r0,45r-64,0r0,-29v1,-41,-72,-62,-115,-62v-111,0,-195,88,-195,203","w":528},"\u00e8":{"d":"111,-249v-2,118,84,201,199,200v57,0,106,-21,147,-62r33,51v-32,34,-120,72,-187,72v-149,0,-263,-114,-263,-266v0,-148,106,-261,246,-261v145,0,226,116,211,266r-386,0xm429,-303v-2,-93,-56,-155,-145,-155v-91,0,-159,68,-170,155r315,0xm256,-584r-87,-119r76,0r70,119r-59,0","w":548},"\u00e9":{"d":"111,-249v-2,118,84,201,199,200v57,0,106,-21,147,-62r33,51v-32,34,-120,72,-187,72v-149,0,-263,-114,-263,-266v0,-148,106,-261,246,-261v145,0,226,116,211,266r-386,0xm429,-303v-2,-93,-56,-155,-145,-155v-91,0,-159,68,-170,155r315,0xm256,-584r70,-119r76,0r-87,119r-59,0","w":548},"\u00ea":{"d":"111,-249v-2,118,84,201,199,200v57,0,106,-21,147,-62r33,51v-32,34,-120,72,-187,72v-149,0,-263,-114,-263,-266v0,-148,106,-261,246,-261v145,0,226,116,211,266r-386,0xm429,-303v-2,-93,-56,-155,-145,-155v-91,0,-159,68,-170,155r315,0xm168,-584r83,-119r70,0r83,119r-63,0r-54,-81r-2,0r-54,81r-63,0","w":548},"\u00eb":{"d":"111,-249v-2,118,84,201,199,200v57,0,106,-21,147,-62r33,51v-32,34,-120,72,-187,72v-149,0,-263,-114,-263,-266v0,-148,106,-261,246,-261v145,0,226,116,211,266r-386,0xm429,-303v-2,-93,-56,-155,-145,-155v-91,0,-159,68,-170,155r315,0xm332,-617r0,-86r59,0r0,86r-59,0xm182,-617r0,-86r59,0r0,86r-59,0","w":548},"\u00ec":{"d":"154,0v-43,0,-61,-18,-61,-61r0,-361v2,-31,-37,-20,-64,-22r0,-59r71,0v43,0,61,18,61,61r0,361v-2,31,37,20,64,22r0,59r-71,0xm89,-584r-86,-119r76,0r69,119r-59,0","w":252},"\u00ed":{"d":"154,0v-43,0,-61,-18,-61,-61r0,-361v2,-31,-37,-20,-64,-22r0,-59r71,0v43,0,61,18,61,61r0,361v-2,31,37,20,64,22r0,59r-71,0xm89,-584r70,-119r76,0r-87,119r-59,0","w":252},"\u00ee":{"d":"154,0v-43,0,-61,-18,-61,-61r0,-361v2,-31,-37,-20,-64,-22r0,-59r71,0v43,0,61,18,61,61r0,361v-2,31,37,20,64,22r0,59r-71,0xm1,-584r84,-119r69,0r84,119r-63,0r-54,-81r-2,0r-55,81r-63,0","w":252},"\u00ef":{"d":"154,0v-43,0,-61,-18,-61,-61r0,-361v2,-31,-37,-20,-64,-22r0,-59r71,0v43,0,61,18,61,61r0,361v-2,31,37,20,64,22r0,59r-71,0xm151,-617r0,-86r59,0r0,86r-59,0xm25,-617r0,-86r60,0r0,86r-60,0","w":252},"\u00f0":{"d":"37,-231v0,-127,97,-236,228,-236v67,0,119,18,155,54r2,0v-23,-65,-64,-118,-124,-159r-176,80r-13,-48r135,-63v-43,-22,-90,-39,-142,-51r20,-58v77,19,142,45,196,77r131,-59r13,48r-97,45v101,79,151,188,151,328v0,153,-83,282,-248,285v-135,2,-231,-114,-231,-243xm277,-409v-102,0,-171,81,-170,179v0,98,65,181,169,181v104,0,170,-107,170,-203v0,-99,-67,-157,-169,-157","w":565},"\u00f1":{"d":"347,-451v-115,1,-192,93,-192,210r0,241r-68,0r0,-422v2,-31,-37,-20,-64,-22r0,-59r70,0v65,-4,65,54,59,115r2,0v28,-66,102,-129,206,-127v119,3,163,72,163,195r0,239v-2,31,37,20,64,22r0,59r-71,0v-43,0,-61,-18,-61,-61r0,-241v-2,-91,-17,-149,-108,-149xm159,-587v0,-78,31,-117,93,-117v42,-1,68,33,90,54v37,35,79,17,76,-51r53,0v0,78,-31,117,-93,117v-41,1,-68,-34,-90,-54v-36,-34,-81,-17,-77,51r-52,0","w":608},"\u00f2":{"d":"306,12v-144,0,-266,-120,-266,-265v0,-145,122,-262,266,-262v144,0,265,117,265,262v0,145,-121,265,-265,265xm306,-453v-108,0,-196,90,-196,200v0,110,88,204,196,204v108,0,195,-94,195,-204v0,-110,-87,-200,-195,-200xm276,-584r-87,-119r76,0r70,119r-59,0","w":611},"\u00f3":{"d":"306,12v-144,0,-266,-120,-266,-265v0,-145,122,-262,266,-262v144,0,265,117,265,262v0,145,-121,265,-265,265xm306,-453v-108,0,-196,90,-196,200v0,110,88,204,196,204v108,0,195,-94,195,-204v0,-110,-87,-200,-195,-200xm276,-584r70,-119r76,0r-87,119r-59,0","w":611},"\u00f4":{"d":"306,12v-144,0,-266,-120,-266,-265v0,-145,122,-262,266,-262v144,0,265,117,265,262v0,145,-121,265,-265,265xm306,-453v-108,0,-196,90,-196,200v0,110,88,204,196,204v108,0,195,-94,195,-204v0,-110,-87,-200,-195,-200xm188,-584r83,-119r70,0r83,119r-63,0r-54,-81r-2,0r-54,81r-63,0","w":611},"\u00f5":{"d":"306,12v-144,0,-266,-120,-266,-265v0,-145,122,-262,266,-262v144,0,265,117,265,262v0,145,-121,265,-265,265xm306,-453v-108,0,-196,90,-196,200v0,110,88,204,196,204v108,0,195,-94,195,-204v0,-110,-87,-200,-195,-200xm148,-587v0,-78,31,-117,93,-117v42,-1,68,33,90,54v37,35,79,17,76,-51r53,0v0,78,-31,117,-93,117v-41,1,-69,-34,-91,-54v-36,-34,-80,-17,-76,51r-52,0","w":611},"\u00f6":{"d":"306,12v-144,0,-266,-120,-266,-265v0,-145,122,-262,266,-262v144,0,265,117,265,262v0,145,-121,265,-265,265xm306,-453v-108,0,-196,90,-196,200v0,110,88,204,196,204v108,0,195,-94,195,-204v0,-110,-87,-200,-195,-200xm352,-617r0,-86r59,0r0,86r-59,0xm202,-617r0,-86r59,0r0,86r-59,0","w":611},"\u00f7":{"d":"257,-433r0,-74r75,0r0,74r-75,0xm50,-255r0,-58r490,0r0,58r-490,0xm257,-61r0,-74r75,0r0,74r-75,0"},"\u00f8":{"d":"571,-256v0,148,-120,271,-265,268v-47,0,-90,-11,-129,-32r-38,53r-41,-30r37,-51v-63,-53,-95,-119,-95,-198v0,-152,118,-271,265,-269v50,0,96,12,137,37r39,-55r41,30r-39,54v59,51,88,116,88,193xm306,-453v-109,-2,-196,90,-196,202v0,59,21,108,63,149r232,-324v-31,-18,-64,-27,-99,-27xm214,-73v135,76,287,-36,287,-179v0,-57,-19,-105,-58,-142","w":611},"\u00f9":{"d":"450,-115v-28,64,-102,127,-203,127v-108,0,-162,-65,-162,-195r0,-239v2,-31,-37,-20,-64,-22r0,-59r71,0v42,0,61,17,61,59r0,243v3,96,18,149,118,149v101,0,177,-105,177,-210r0,-241r68,0r0,422v-2,31,37,20,64,22r0,59r-69,0v-65,4,-65,-54,-59,-115r-2,0xm265,-584r-87,-119r76,0r70,119r-59,0","w":603},"\u00fa":{"d":"450,-115v-28,64,-102,127,-203,127v-108,0,-162,-65,-162,-195r0,-239v2,-31,-37,-20,-64,-22r0,-59r71,0v42,0,61,17,61,59r0,243v3,96,18,149,118,149v101,0,177,-105,177,-210r0,-241r68,0r0,422v-2,31,37,20,64,22r0,59r-69,0v-65,4,-65,-54,-59,-115r-2,0xm265,-584r70,-119r76,0r-87,119r-59,0","w":603},"\u00fb":{"d":"450,-115v-28,64,-102,127,-203,127v-108,0,-162,-65,-162,-195r0,-239v2,-31,-37,-20,-64,-22r0,-59r71,0v42,0,61,17,61,59r0,243v3,96,18,149,118,149v101,0,177,-105,177,-210r0,-241r68,0r0,422v-2,31,37,20,64,22r0,59r-69,0v-65,4,-65,-54,-59,-115r-2,0xm177,-584r83,-119r70,0r83,119r-63,0r-54,-81r-2,0r-54,81r-63,0","w":603},"\u00fc":{"d":"450,-115v-28,64,-102,127,-203,127v-108,0,-162,-65,-162,-195r0,-239v2,-31,-37,-20,-64,-22r0,-59r71,0v42,0,61,17,61,59r0,243v3,96,18,149,118,149v101,0,177,-105,177,-210r0,-241r68,0r0,422v-2,31,37,20,64,22r0,59r-69,0v-65,4,-65,-54,-59,-115r-2,0xm341,-617r0,-86r59,0r0,86r-59,0xm191,-617r0,-86r59,0r0,86r-59,0","w":603},"\u00fd":{"d":"40,111v13,20,48,38,75,38v39,0,69,-28,93,-82r30,-69r-177,-419v-8,-18,-21,-25,-45,-23r0,-59v29,0,67,0,80,11v9,8,19,21,28,44r129,314r18,54r2,0v5,-19,10,-37,17,-54r124,-314v18,-42,24,-54,78,-55r31,0r0,59v-24,-1,-38,5,-45,23r-217,526v-25,61,-70,105,-152,105v-38,0,-75,-17,-101,-49xm238,-584r70,-119r76,0r-87,119r-59,0","w":539},"\u00fe":{"d":"542,-252v0,147,-80,264,-221,264v-84,0,-143,-44,-169,-94r-2,0v1,12,2,27,2,44r0,238r-68,0r0,-822v2,-31,-37,-20,-64,-22r0,-59r71,0v43,0,61,18,61,61r0,179r-2,44r2,0v33,-64,86,-96,160,-96v150,-2,230,111,230,263xm314,-453v-107,0,-164,78,-164,201v0,123,57,203,164,203v101,0,158,-93,158,-203v0,-111,-55,-201,-158,-201","w":584},"\u00ff":{"d":"40,111v13,20,48,38,75,38v39,0,69,-28,93,-82r30,-69r-177,-419v-8,-18,-21,-25,-45,-23r0,-59v29,0,67,0,80,11v9,8,19,21,28,44r129,314r18,54r2,0v5,-19,10,-37,17,-54r124,-314v18,-42,24,-54,78,-55r31,0r0,59v-24,-1,-38,5,-45,23r-217,526v-25,61,-70,105,-152,105v-38,0,-75,-17,-101,-49xm314,-617r0,-86r59,0r0,86r-59,0xm164,-617r0,-86r59,0r0,86r-59,0","w":539},"\u0152":{"d":"795,-703v43,0,61,18,61,61r0,70r-65,0v-2,-28,10,-69,-22,-69r-233,0r0,256r256,0r0,62r-256,0r0,261r262,0v32,2,20,-41,22,-69r65,0r0,70v0,41,-19,61,-56,61r-309,0r-143,10v-194,4,-339,-166,-339,-362v0,-197,145,-365,339,-361r142,10r276,0xm377,-646v-159,-3,-266,132,-266,294v0,163,106,298,266,295v39,0,68,-2,89,-7r0,-574v-23,-5,-53,-8,-89,-8","w":910},"\u0153":{"d":"573,-249v2,118,82,200,199,200v56,0,106,-21,147,-62r33,51v-37,37,-121,74,-200,72v-97,-2,-183,-62,-216,-137r-2,0v-38,79,-118,136,-229,137v-147,2,-265,-112,-265,-262v0,-150,118,-267,265,-265v108,1,189,59,228,135r2,0v34,-78,109,-134,215,-135v142,-2,225,117,209,266r-386,0xm891,-303v-3,-92,-56,-155,-145,-155v-91,0,-159,68,-170,155r315,0xm304,-453v-109,0,-194,89,-194,203v0,114,85,201,195,201v110,0,195,-90,195,-204v0,-115,-86,-200,-196,-200","w":1010},"\u0178":{"d":"261,0r0,-306r-188,-309v-14,-22,-32,-28,-63,-26r0,-62v30,0,66,0,82,10v12,7,26,22,41,46r119,199r43,79r2,0v50,-98,106,-186,162,-278v26,-44,35,-54,96,-56r27,0r0,62v-31,-2,-49,4,-62,26r-189,309r0,306r-70,0xm343,-785r0,-86r59,0r0,86r-59,0xm193,-785r0,-86r59,0r0,86r-59,0","w":592},"\u02c6":{"d":"117,-752r83,-119r70,0r83,119r-63,0r-54,-81r-2,0r-54,81r-63,0","w":470},"\u02dc":{"d":"89,-755v0,-78,31,-117,93,-117v42,-1,68,33,90,54v37,35,79,17,76,-51r53,0v0,78,-31,117,-93,117v-41,1,-68,-34,-90,-54v-36,-34,-81,-17,-77,51r-52,0","w":492},"\u2013":{"d":"71,-255r0,-58r500,0r0,58r-500,0","w":642},"\u2014":{"d":"71,-255r0,-58r700,0r0,58r-700,0","w":842},"\u2018":{"d":"51,-540r56,-172r54,0r-39,172r-71,0","w":212},"\u2019":{"d":"51,-541r39,-172r71,0r-56,172r-54,0","w":212},"\u201a":{"d":"90,-82r71,0r-56,172r-54,0","w":212},"\u201c":{"d":"169,-540r56,-172r54,0r-39,172r-71,0xm51,-540r56,-172r54,0r-39,172r-71,0","w":330},"\u201d":{"d":"169,-541r39,-172r71,0r-56,172r-54,0xm51,-541r39,-172r71,0r-56,172r-54,0","w":330},"\u201e":{"d":"169,90r39,-172r71,0r-56,172r-54,0xm90,-82r71,0r-56,172r-54,0","w":330},"\u2022":{"d":"362,-291v0,77,-65,143,-142,143v-77,0,-143,-67,-143,-143v0,-77,67,-143,143,-143v77,0,142,67,142,143","w":439},"\u2026":{"d":"605,0r0,-80r77,0r0,80r-77,0xm370,0r0,-80r77,0r0,80r-77,0xm135,0r0,-80r77,0r0,80r-77,0","w":817},"\u2039":{"d":"202,-77r-164,-205r164,-206r73,0r-164,206r164,205r-73,0","w":343},"\u203a":{"d":"66,-77r164,-205r-164,-206r74,0r164,206r-164,205r-74,0","w":343},"\u20ac":{"d":"548,-4v-218,66,-413,-80,-445,-262r-64,0r0,-51r57,0v-4,-27,-1,-54,0,-81r-57,0r0,-51r66,0v38,-170,215,-308,428,-254r-16,65v-164,-45,-305,56,-337,189r303,0r-10,51r-304,0v-5,24,-4,54,-2,81r291,0r-9,51r-270,0v28,142,181,252,353,198","w":590},"\u2122":{"d":"419,-265r0,-51v14,-1,35,5,36,-10r29,-377r52,0r115,251v6,13,11,26,14,41r2,0v3,-15,8,-28,14,-41r115,-251r52,0r29,377v1,15,22,9,36,10r0,51v-27,-1,-67,4,-79,-9v-6,-6,-11,-19,-12,-37r-20,-251r1,-29r-2,0r-112,244r-46,0r-112,-244r-2,0r1,29r-20,251v-4,36,-10,45,-48,46r-43,0xm366,-703v36,1,46,10,47,46r0,46r-52,0v-2,-15,7,-40,-10,-40r-95,0r0,386r-57,0r0,-386r-94,0v-17,0,-8,25,-10,40r-52,0r0,-46v1,-36,11,-45,47,-46r276,0","w":976}}});
