/*!
 * The following copyright notice may not be removed under any circumstances.
 * 
 * Copyright:
 * Copyright (c) 2008 by Jos Buivenga/exljbris. All rights reserved.
 * 
 * Description:
 * This is a protected webfont and is intended for CSS @font-face use ONLY.
 * Reverse engineering this font is strictly prohibited.
 */
Cufon.registerFont({"w":619,"face":{"font-family":"","font-weight":700,"font-stretch":"normal","units-per-em":"1000","panose-1":"2 0 0 0 0 0 0 0 0 0","ascent":"750","descent":"-250","x-height":"12","bbox":"-19 -902 976 210","underline-thickness":"50","underline-position":"-50","unicode-range":"U+0020-U+2122"},"glyphs":{" ":{"w":265},"!":{"d":"111,-205r-11,-505r132,0r-10,505r-111,0xm105,0r0,-118r123,0r0,118r-123,0","w":332},"\"":{"d":"217,-514r0,-209r94,0r0,209r-94,0xm57,-514r0,-209r94,0r0,209r-94,0","w":369},"#":{"d":"119,0r32,-187r-119,0r15,-91r119,0r25,-140r-117,0r15,-92r118,0r35,-200r102,0r-35,200r136,0r35,-200r102,0r-35,200r121,0r-16,92r-120,0r-25,140r119,0r-15,91r-120,0r-32,187r-102,0r33,-187r-137,0r-32,187r-102,0xm268,-278r137,0r25,-140r-137,0","w":700},"$":{"d":"129,-207v28,53,85,99,171,101v45,1,95,-33,94,-77v-1,-49,-32,-70,-66,-89v-20,-10,-42,-20,-66,-30v-48,-21,-98,-48,-136,-80v-44,-37,-66,-83,-66,-138v-1,-115,85,-183,188,-198r0,-93r89,0r0,93v79,11,166,51,166,136r0,66r-118,0r0,-32v-1,-37,-48,-55,-93,-55v-49,0,-101,27,-100,73v0,22,11,41,34,58v49,37,123,59,182,91v62,33,120,95,118,191v-1,104,-89,186,-189,198r0,93r-89,0r0,-92v-88,-10,-164,-64,-210,-140","w":560},"%":{"d":"382,-564v0,86,-77,158,-164,158v-87,0,-163,-72,-163,-158v0,-86,77,-158,163,-158v86,0,164,72,164,158xm80,0r545,-710r117,0r-545,710r-117,0xm152,-564v0,36,30,66,66,66v36,0,67,-30,67,-66v0,-36,-31,-66,-67,-66v-36,0,-66,30,-66,66xm606,12v-87,0,-163,-71,-163,-157v0,-85,77,-158,163,-158v86,0,163,73,163,158v0,86,-76,157,-163,157xm606,-212v-36,0,-66,30,-66,66v0,36,30,66,66,66v36,0,67,-30,67,-66v0,-36,-31,-66,-67,-66","w":825},"&":{"d":"298,12v-140,0,-257,-89,-256,-220v0,-78,51,-154,118,-170r0,-2v-52,-27,-87,-80,-87,-164v0,-105,102,-178,216,-178v39,0,70,4,98,12r-31,102v-17,-4,-37,-6,-60,-6v-46,-1,-95,44,-93,93v2,59,39,96,108,96r107,0r0,-85r127,0r0,85r85,0r0,112r-85,0r0,84v1,146,-99,241,-247,241xm311,-313v-76,-1,-136,31,-137,100v0,66,54,108,124,107v78,-1,121,-48,120,-130r0,-77r-107,0","w":651},"'":{"d":"57,-514r0,-209r96,0r0,209r-96,0","w":210},"(":{"d":"201,95v-160,-221,-159,-613,-3,-836r108,0v-152,251,-148,580,3,836r-108,0","w":351},")":{"d":"42,95v151,-256,155,-585,3,-836r108,0v158,224,158,614,-2,836r-109,0","w":351},"*":{"d":"171,-321r-91,-66r83,-100r0,-2r-126,-31r34,-108r121,49r-9,-131r115,0r-9,131r121,-49r36,107r-128,32r0,2r84,99r-91,67r-69,-110r-2,0","w":483},"+":{"d":"42,-236r0,-99r216,0r0,-237r103,0r0,237r216,0r0,99r-216,0r0,236r-103,0r0,-236r-216,0"},",":{"d":"89,-129r122,0r-96,234r-93,0","w":265},"-":{"d":"65,-230r0,-111r301,0r0,111r-301,0","w":431},".":{"d":"71,0r0,-127r123,0r0,127r-123,0","w":265},"\/":{"d":"-1,42r254,-788r109,0r-255,788r-108,0","w":367},"0":{"d":"306,12v-98,0,-166,-42,-202,-108v-37,-67,-55,-154,-55,-260v0,-244,86,-366,257,-366v171,0,257,122,257,366v0,106,-18,193,-55,260v-40,72,-107,108,-202,108xm306,-106v83,0,125,-82,125,-248v0,-166,-42,-249,-125,-249v-83,0,-125,83,-125,249v0,166,42,248,125,248","w":612},"1":{"d":"64,0r0,-111r153,0r1,-442r-2,0v-17,33,-61,67,-88,94r-76,-80r178,-171r118,0r0,599r153,0r0,111r-437,0","w":533},"2":{"d":"106,0v-65,-1,-73,-27,-73,-94v0,-187,167,-223,279,-302v45,-33,68,-71,68,-114v1,-56,-44,-92,-100,-92v-46,0,-93,21,-96,56r0,31r-118,0v0,-66,-5,-112,36,-147v45,-39,102,-60,172,-60v134,0,240,79,238,210v-2,147,-122,207,-222,260v-81,43,-121,84,-121,123v0,12,9,18,27,18r208,0v31,2,20,-38,22,-65r118,0r0,108v0,48,-20,68,-68,68r-370,0","w":581},"3":{"d":"520,-214v-2,130,-112,226,-260,226v-88,0,-175,-38,-234,-100r66,-98v44,48,108,76,186,76v55,0,109,-48,109,-106v0,-66,-64,-106,-134,-104r-50,0r-26,-65r120,-161v16,-24,32,-42,47,-54r0,-2v-38,5,-106,3,-152,3v-31,0,-20,38,-22,65r-118,0r0,-108v1,-48,14,-68,62,-68r386,0r0,81r-163,204v101,15,185,92,183,211","w":556},"4":{"d":"18,-179r0,-83r294,-448r154,0r0,420r109,0r0,111r-109,0r0,179r-131,0r0,-179r-317,0xm337,-290r0,-197r5,-77r-2,0v-46,85,-98,150,-149,228r-36,47r0,2v56,-5,121,-2,182,-3","w":589},"5":{"d":"279,-110v73,0,129,-50,129,-122v0,-69,-74,-118,-138,-117v-67,0,-111,11,-149,32r-46,-23r26,-302v4,-46,19,-67,67,-68r262,0v45,0,68,23,68,68r0,108r-119,0v-2,-27,9,-65,-22,-65r-117,0v-13,0,-21,7,-22,22r-9,98r-5,33v24,-7,48,-13,77,-13v148,0,260,94,260,232v0,139,-115,240,-266,240v-89,0,-172,-38,-228,-99r66,-99v33,37,97,75,166,75","w":595},"6":{"d":"541,-225v0,134,-99,237,-239,237v-73,0,-137,-30,-190,-89v-53,-59,-79,-140,-79,-241v0,-128,39,-233,117,-316v55,-59,125,-88,210,-88v59,0,108,10,146,30r-38,111v-77,-36,-176,-29,-226,33v-31,38,-53,83,-62,138r2,0v22,-30,81,-52,132,-52v133,0,227,106,227,237xm290,-356v-61,0,-120,27,-122,77v-4,79,63,173,136,173v70,0,110,-52,110,-122v0,-70,-53,-128,-124,-128","w":575},"7":{"d":"22,-642v1,-47,15,-68,62,-68r444,0r0,90r-338,620r-143,0r293,-534v16,-29,30,-51,43,-65r0,-2v-61,4,-152,2,-220,2v-31,0,-20,38,-22,65r-119,0r0,-108","w":538},"8":{"d":"292,12v-133,0,-256,-86,-256,-208v0,-72,51,-150,109,-186v-1,-5,-6,-5,-9,-8v-37,-24,-70,-72,-70,-136v0,-114,101,-196,226,-196v128,0,230,78,230,198v0,60,-29,119,-77,160r0,2v65,41,98,93,98,155v1,128,-115,219,-251,219xm294,-603v-56,0,-101,30,-101,80v0,55,46,72,91,91v27,12,46,17,56,17v25,0,56,-65,56,-103v0,-54,-45,-85,-102,-85xm289,-106v61,0,122,-39,122,-94v0,-26,-9,-45,-25,-60v-19,-19,-116,-65,-146,-67v-10,0,-25,11,-44,35v-19,24,-28,52,-28,82v-1,62,57,104,121,104","w":583},"9":{"d":"33,-484v0,-134,99,-238,239,-238v73,0,137,30,190,89v53,59,79,140,79,241v0,128,-39,233,-117,316v-55,59,-125,88,-210,88v-59,0,-108,-10,-146,-30r38,-111v76,38,176,29,226,-33v31,-38,53,-83,62,-138r-2,0v-21,30,-81,52,-132,52v-133,0,-227,-106,-227,-236xm160,-482v0,70,53,128,124,128v61,0,120,-26,122,-77v4,-79,-63,-172,-136,-172v-70,0,-110,51,-110,121","w":575},":":{"d":"92,-383r0,-127r122,0r0,127r-122,0xm92,0r0,-127r122,0r0,127r-122,0","w":306},";":{"d":"93,-383r0,-127r122,0r0,127r-122,0xm35,105r55,-234r121,0r-82,234r-94,0","w":306},"<":{"d":"64,-245r0,-82r481,-214r0,111r-347,143r0,2r347,143r0,111"},"=":{"d":"66,-339r0,-98r488,0r0,98r-488,0xm66,-134r0,-98r488,0r0,98r-488,0"},">":{"d":"71,-31r0,-111r347,-143r0,-2r-347,-143r0,-111r481,214r0,82"},"?":{"d":"224,-724v113,0,218,75,218,188v0,57,-21,105,-62,144r-50,46v-53,48,-66,70,-62,141r-123,0v-4,-83,8,-130,59,-177v35,-33,106,-89,106,-135v0,-52,-43,-90,-89,-90v-45,-1,-87,17,-115,42r-70,-87v31,-35,115,-72,188,-72xm145,0r0,-118r123,0r0,118r-123,0","w":476},"@":{"d":"434,127v-222,6,-396,-154,-396,-367v0,-201,170,-373,368,-373v101,0,173,20,217,61v44,41,66,93,66,157r0,250r73,0r0,91r-277,0v-118,4,-215,-79,-215,-186v0,-107,96,-187,215,-183r85,0v-4,-60,-80,-88,-152,-88v-141,0,-255,131,-255,273v0,149,116,271,271,266r0,99xm495,-341v-56,-2,-99,43,-99,98v0,54,42,98,97,98r77,0r0,-196r-75,0","w":785},"A":{"d":"11,0r0,-111v25,1,40,-2,47,-22r211,-577r137,0r210,577v6,20,22,23,47,22r0,111v-45,-2,-107,6,-133,-12v-12,-8,-21,-23,-29,-46r-44,-124r-240,0r-44,124v-16,43,-28,58,-83,58r-79,0xm247,-290r180,0r-61,-178r-28,-106r-2,0v-25,115,-57,184,-89,284","w":674},"B":{"d":"166,0v-47,0,-68,-20,-68,-68r0,-531r-65,0r0,-111r307,0v123,-1,220,64,220,183v0,73,-39,127,-86,152r0,2v68,17,114,86,114,167v2,136,-109,207,-245,206r-177,0xm427,-511v0,-54,-33,-89,-88,-88r-110,0r0,179r112,0v53,1,87,-39,86,-91xm453,-214v0,-60,-40,-102,-100,-102r-124,0r0,183v0,15,7,22,22,22r102,0v61,1,100,-43,100,-103","w":629},"C":{"d":"395,12v-209,0,-365,-164,-365,-370v0,-204,158,-370,360,-364v110,3,265,38,269,159r0,79r-119,0r0,-40v0,-54,-88,-76,-147,-76v-132,0,-227,100,-227,236v0,134,101,254,231,254v76,0,168,-43,215,-94r69,94v-61,63,-163,122,-286,122","w":709},"D":{"d":"167,0v-48,0,-68,-20,-68,-68r0,-531r-65,0r0,-111r289,0v219,-2,362,135,362,354v0,219,-143,358,-362,356r-156,0xm549,-355v0,-151,-87,-244,-233,-244r-86,0r0,466v0,36,54,21,86,22v146,4,233,-93,233,-244","w":715},"E":{"d":"167,0v-48,0,-68,-20,-68,-68r0,-531r-65,0r0,-111r429,0v45,0,68,23,68,68r0,108r-119,0v-2,-27,9,-65,-22,-65r-160,0r0,186r230,0r0,111r-230,0r0,169v0,15,7,22,22,22r164,0v31,2,20,-38,22,-65r119,0r0,108v0,48,-21,68,-68,68r-322,0","w":578},"F":{"d":"439,-710v48,0,68,21,68,68r0,108r-118,0v-2,-27,9,-65,-22,-65r-137,0r0,201r227,0r0,111r-227,0r0,287r-131,0r0,-599r-65,0r0,-111r405,0","w":526},"G":{"d":"376,12v-194,2,-345,-161,-345,-364v0,-207,157,-370,361,-370v99,0,201,33,259,90r-74,94v-32,-30,-119,-63,-182,-63v-130,0,-228,108,-228,245v0,139,100,246,233,246v69,0,134,-27,180,-74v-3,-29,12,-75,-22,-75r-43,0r0,-111r115,0v48,0,68,20,68,67r0,303r-112,0r1,-64r-2,0v-43,43,-119,74,-209,76","w":742},"H":{"d":"162,-710v48,0,68,21,68,68r0,233r313,0r0,-233v0,-45,23,-68,68,-68r128,0r0,111v-27,2,-65,-9,-65,22r0,577r-131,0r0,-298r-313,0r0,298r-131,0r0,-577v2,-31,-38,-20,-65,-22r0,-111r128,0","w":773},"I":{"d":"38,0r0,-111r71,0r0,-488r-71,0r0,-111r266,0r0,111r-71,0r0,488r71,0r0,111r-266,0","w":342},"J":{"d":"244,12v-126,0,-229,-86,-224,-222r0,-41r131,0v-7,84,22,141,93,141v58,0,92,-40,92,-106r0,-361v0,-15,-7,-22,-22,-22r-172,0r0,-111r257,0v45,0,68,23,68,68r0,432v5,137,-96,222,-223,222","w":539},"K":{"d":"162,-710v48,0,68,21,68,68r0,221v42,0,93,3,107,-23r143,-266r144,0r-160,292v-15,27,-30,44,-45,52r0,2v16,4,31,20,46,49r90,181v8,20,37,25,69,23r0,111v-45,-1,-109,4,-137,-10v-13,-7,-26,-21,-37,-43r-116,-233v-12,-32,-61,-22,-104,-24r0,310r-131,0r0,-577v2,-31,-38,-20,-65,-22r0,-111r128,0","w":634},"L":{"d":"167,0v-48,0,-68,-20,-68,-68r0,-509v2,-31,-38,-20,-65,-22r0,-111r128,0v48,0,68,21,68,68r0,509v0,15,7,22,22,22r155,0v31,2,20,-38,22,-65r119,0r0,108v0,48,-20,68,-68,68r-313,0","w":558},"M":{"d":"18,0r0,-111v26,0,51,5,53,-22r46,-577r136,0r146,338r35,95r2,0v54,-155,120,-286,181,-433r136,0r46,577v0,27,27,22,53,22r0,111r-113,0v-50,-1,-63,-20,-67,-68r-24,-316v-3,-34,-2,-73,-1,-110r-2,0v-14,47,-27,83,-39,110r-118,262r-106,0r-118,-262v-13,-29,-29,-70,-39,-111r-2,0v1,18,1,35,1,52v0,21,-1,41,-2,59r-23,316v-5,48,-18,67,-68,68r-113,0","w":870},"N":{"d":"230,-68v0,48,-20,68,-68,68r-128,0r0,-111v27,-2,65,9,65,-22r0,-577r118,0r269,393v19,27,38,61,59,100r2,0v-15,-139,-7,-278,-7,-425v0,-47,20,-68,68,-68r128,0r0,111v-27,2,-65,-9,-65,22r0,577r-117,0r-270,-392v-19,-27,-38,-60,-59,-100r-2,0v15,139,7,278,7,424","w":770},"O":{"d":"397,12v-203,0,-367,-168,-367,-370v0,-202,164,-364,367,-364v203,0,367,162,367,364v0,202,-164,370,-367,370xm397,-600v-129,0,-231,110,-231,242v0,132,102,248,231,248v129,0,231,-117,231,-248v0,-132,-102,-242,-231,-242","w":794},"P":{"d":"585,-479v0,134,-94,236,-226,234r-129,0r0,245r-131,0r0,-599r-65,0r0,-111r325,0v132,-2,226,97,226,231xm451,-478v0,-72,-42,-122,-114,-121r-107,0r0,242r105,0v73,1,116,-48,116,-121","w":605},"Q":{"d":"396,12v-202,0,-366,-169,-366,-370v0,-202,163,-363,366,-363v202,0,368,161,368,362v0,81,-26,155,-78,224r77,70r-78,85r-77,-76v-59,45,-130,68,-212,68xm396,-599v-129,0,-230,109,-230,241v0,126,102,249,218,248v56,0,100,-11,129,-34r-72,-67r77,-85r72,72v25,-40,38,-85,38,-135v0,-131,-103,-240,-232,-240","w":794},"R":{"d":"573,-496v0,90,-44,159,-118,187r0,2v15,7,26,19,35,36r69,137v9,18,33,25,63,23r0,111v-43,-1,-103,4,-130,-10v-14,-7,-27,-21,-38,-43r-91,-179v-16,-27,-26,-32,-67,-33r-66,0r0,265r-131,0r0,-599r-65,0r0,-111r318,0v130,-1,221,83,221,214xm439,-488v0,-67,-38,-111,-103,-111r-106,0r0,222r104,0v67,0,105,-43,105,-111","w":632},"S":{"d":"512,-200v-2,131,-102,212,-247,212v-87,0,-175,-44,-233,-110r74,-92v56,56,113,84,172,84v51,0,102,-30,102,-76v-1,-48,-32,-69,-66,-88v-20,-10,-42,-22,-66,-32v-48,-21,-97,-48,-136,-78v-44,-35,-66,-82,-66,-140v-1,-121,110,-202,237,-202v73,0,131,21,175,60v40,35,37,80,36,146r-118,0r0,-32v-1,-37,-53,-55,-98,-55v-48,0,-100,29,-100,71v0,73,77,86,132,112v47,22,97,46,136,76v44,35,66,83,66,144","w":549},"T":{"d":"574,-710v48,1,63,16,64,64r0,112r-115,0v-2,-27,9,-65,-22,-65r-109,0r0,599r-131,0r0,-599r-109,0v-31,-2,-20,38,-22,65r-115,0r0,-112v1,-48,16,-63,64,-64r495,0","w":653},"U":{"d":"370,12v-161,0,-279,-107,-279,-265r0,-324v2,-31,-38,-20,-65,-22r0,-111r128,0v48,0,68,21,68,68r0,385v-1,91,58,147,148,147v91,0,148,-56,148,-148r0,-384v0,-47,20,-68,68,-68r128,0r0,111v-27,2,-65,-9,-65,22r0,324v2,158,-118,265,-279,265","w":740},"V":{"d":"60,-577v-7,-21,-23,-23,-49,-22r0,-111v46,2,110,-7,137,12v12,8,22,23,30,46r136,396v9,27,20,66,27,104r2,0v9,-43,18,-77,27,-104r136,-396v16,-43,28,-58,83,-58r84,0r0,111v-26,-1,-43,1,-50,22r-212,577r-138,0","w":684},"W":{"d":"67,-577v-3,-21,-25,-23,-51,-22r0,-111v49,2,114,-7,144,12v14,8,24,24,29,46r97,423r12,75r2,0v3,-23,8,-48,15,-75r129,-479r111,0r122,479r14,75r2,0v2,-23,6,-48,12,-75r98,-423v10,-44,34,-57,87,-58r86,0r0,111v-26,-1,-46,1,-51,22r-148,577r-151,0r-108,-402v-8,-30,-14,-59,-18,-88r-2,0v-4,28,-10,57,-19,88r-113,402r-152,0","w":992},"X":{"d":"76,-595v-11,-6,-38,-4,-56,-4r0,-111v46,2,107,-6,136,10v12,7,25,21,37,42r68,118r45,86r2,0v31,-74,73,-137,112,-204v22,-39,37,-52,92,-52r81,0r0,111v-19,0,-44,-1,-55,5v-6,3,-12,9,-18,19r-133,215r221,360r-147,0r-110,-187r-45,-83r-2,0v-44,94,-102,180,-152,270r-147,0r220,-360r-132,-215v-6,-11,-12,-17,-17,-20","w":613},"Y":{"d":"242,0r0,-310r-168,-265v-13,-18,-15,-23,-41,-24r-23,0r0,-111v41,1,96,-4,122,10v13,7,25,21,38,42r94,156r43,80r2,0v39,-80,91,-160,136,-236v24,-40,37,-52,93,-52r67,0r0,111v-16,0,-38,-1,-47,5v-5,3,-10,9,-17,19r-168,265r0,310r-131,0","w":615},"Z":{"d":"567,-68v0,48,-20,68,-68,68r-482,0r0,-83r319,-452v19,-27,37,-48,54,-64r0,-2v-68,4,-153,2,-226,2v-31,0,-20,38,-22,65r-119,0r0,-108v0,-47,20,-68,68,-68r461,0r0,82r-319,453v-19,27,-37,49,-54,64r0,2v14,-1,32,-2,54,-2r194,0v31,2,20,-38,22,-65r118,0r0,108","w":588},"[":{"d":"160,95v-48,0,-68,-20,-68,-68r0,-700v0,-48,20,-68,68,-68r129,0r0,92r-67,0v-15,0,-22,7,-22,22r0,608v0,15,7,22,22,22r67,0r0,92r-129,0","w":352},"\\":{"d":"260,42r-255,-788r109,0r255,788r-109,0","w":364},"]":{"d":"260,27v0,48,-20,68,-68,68r-129,0r0,-92r66,0v15,0,22,-7,22,-22r0,-608v0,-15,-7,-22,-22,-22r-66,0r0,-92r129,0v48,0,68,20,68,68r0,700","w":352},"^":{"d":"65,-245r201,-465r80,0r201,465r-110,0r-131,-331r-131,331r-110,0"},"_":{"d":"5,0r561,0r0,98r-561,0r0,-98","w":571},"`":{"d":"176,-757r-104,-136r122,0r76,136r-94,0","w":399},"a":{"d":"352,-320v0,-77,-26,-104,-104,-104v-53,1,-62,16,-58,61r-118,0r0,-54v0,-88,106,-105,187,-105v147,0,220,68,220,203r0,190v-2,30,35,21,62,22r0,107r-114,0v-49,1,-71,-29,-64,-78v-5,1,-4,7,-7,10v-22,46,-79,79,-149,80v-94,2,-174,-63,-174,-159v0,-52,20,-91,61,-116v41,-26,79,-41,113,-46v64,-8,100,-12,145,-11xm244,-87v61,-1,117,-76,110,-146r-22,0v-114,0,-171,27,-171,80v0,42,33,67,83,66","w":560},"b":{"d":"585,-254v0,149,-92,266,-234,266v-55,0,-115,-28,-137,-54r-15,-18r-2,0v2,16,2,40,2,60r-120,0r0,-580v2,-30,-35,-21,-62,-22r0,-108r121,0v45,0,68,23,68,68r0,148r-2,43r2,0v27,-41,83,-70,153,-71v142,-2,226,119,226,268xm332,-413v-79,0,-130,66,-130,153v0,87,43,165,124,165v81,0,131,-69,131,-157v0,-87,-45,-161,-125,-161","w":618},"c":{"d":"160,-254v0,95,71,156,167,155v49,0,97,-23,143,-69r53,88v-44,48,-125,92,-215,92v-157,0,-276,-114,-276,-266v0,-153,118,-268,279,-268v63,0,112,16,151,46v38,29,35,70,34,129r-112,0r0,-28v0,-28,-43,-40,-73,-40v-89,-1,-151,70,-151,161","w":538},"d":{"d":"32,-256v0,-149,90,-267,232,-266v68,0,118,21,147,62r2,0r-1,-120v2,-30,-35,-21,-62,-22r0,-108r121,0v45,0,68,23,68,68r0,513v-2,30,35,21,61,22r0,107r-117,0v-50,0,-67,-23,-63,-71r-2,0v-37,55,-89,83,-158,83v-143,1,-228,-119,-228,-268xm161,-256v0,87,46,161,125,161v79,0,129,-66,129,-153v0,-87,-41,-165,-123,-165v-82,0,-131,69,-131,157","w":622},"e":{"d":"306,12v-158,4,-274,-117,-274,-270v0,-148,108,-264,254,-264v159,0,249,123,228,289r-352,0v4,76,69,136,141,137v68,1,122,-26,155,-57r53,88v-42,42,-116,76,-205,77xm387,-321v0,-58,-42,-104,-101,-103v-65,1,-108,45,-120,103r221,0","w":557},"f":{"d":"83,-510v-10,-150,100,-217,251,-201r0,108v-7,-1,-16,-2,-26,-2v-70,0,-101,30,-98,95r109,0r0,101r-109,0r0,409r-127,0r0,-409r-63,0r0,-101r63,0","w":345},"g":{"d":"256,-10v-136,0,-224,-120,-224,-258v0,-141,84,-256,226,-254v65,1,127,24,157,72r2,0v-3,-39,18,-60,56,-60r118,0r0,108v-25,1,-61,-8,-61,20r0,351v5,151,-105,241,-269,241v-65,0,-126,-15,-181,-44r39,-100v42,23,86,34,133,34v111,-1,159,-47,152,-149r1,-27r-2,0v-31,44,-80,66,-147,66xm161,-270v0,83,44,154,123,153v84,-1,123,-54,123,-150v0,-98,-42,-147,-127,-147v-80,0,-119,60,-119,144","w":612},"h":{"d":"350,-406v-90,0,-144,77,-144,172r0,234r-127,0r0,-580v2,-30,-35,-21,-62,-22r0,-108r121,0v45,0,68,22,68,67r0,179r-2,43r2,0v26,-53,94,-101,175,-101v119,0,178,65,178,194r0,199v-2,30,35,21,62,22r0,107r-121,0v-47,0,-67,-20,-67,-68r0,-234v-1,-66,-18,-104,-83,-104","w":640},"i":{"d":"93,-593r0,-117r110,0r0,117r-110,0xm154,0v-47,0,-67,-20,-67,-68r0,-312v2,-30,-35,-21,-62,-22r0,-108r121,0v45,0,67,23,67,68r0,313v-2,30,35,21,62,22r0,107r-121,0","w":299},"j":{"d":"110,-593r0,-117r111,0r0,117r-111,0xm232,15v5,137,-107,206,-251,189r0,-107v70,8,124,-18,124,-92r0,-385v2,-30,-35,-21,-62,-22r0,-108r121,0v48,0,68,21,68,68r0,457","w":305},"k":{"d":"138,-710v48,1,67,10,68,58r0,322v35,0,73,2,86,-19r104,-161r141,0r-129,192v-12,17,-25,30,-38,40r0,2v12,5,24,18,36,40r58,110v9,21,44,20,76,19r0,107v-46,-2,-111,7,-143,-8v-11,-6,-21,-18,-31,-36r-85,-160v-9,-19,-43,-20,-75,-19r0,223r-127,0r0,-580v2,-30,-35,-21,-62,-22r0,-108r121,0","w":553},"l":{"d":"148,0v-48,0,-68,-20,-68,-68r0,-512v2,-30,-35,-21,-62,-22r0,-108r121,0v45,0,68,23,68,68r0,513v-2,30,35,21,61,22r0,107r-120,0","w":291},"m":{"d":"409,-304v-2,-62,-9,-102,-71,-102v-29,0,-55,11,-76,33v-35,37,-53,86,-53,149r0,224r-126,0r0,-380v2,-30,-35,-21,-62,-22r0,-108r117,0v60,-2,73,36,66,94r2,0v24,-52,89,-106,165,-106v77,0,127,35,149,105r2,0v27,-55,94,-106,174,-105v111,0,167,65,167,194r0,199v-2,30,35,21,61,22r0,107r-120,0v-48,0,-68,-20,-68,-68r0,-236v-1,-63,-10,-102,-72,-102v-86,0,-128,86,-128,182r0,224r-127,0r0,-304","w":943},"n":{"d":"354,-406v-92,0,-145,77,-145,172r0,234r-126,0r0,-380v2,-30,-35,-21,-62,-22r0,-108r117,0v60,-2,74,38,65,94r2,0v29,-56,91,-106,180,-106v119,0,178,65,178,194r0,199v-2,30,35,21,62,22r0,107r-121,0v-48,0,-68,-20,-68,-68r0,-234v-1,-66,-16,-104,-82,-104","w":643},"o":{"d":"312,12v-153,0,-280,-114,-280,-267v0,-153,126,-267,279,-267v153,0,280,115,280,267v0,153,-126,267,-279,267xm311,-414v-85,0,-151,72,-151,160v0,88,67,158,152,158v85,0,151,-70,151,-158v0,-88,-67,-160,-152,-160","w":623},"p":{"d":"355,12v-74,0,-123,-42,-146,-67r-2,0v5,79,1,172,2,255r-126,0r0,-580v2,-30,-35,-21,-62,-22r0,-108r113,0v51,0,68,22,64,69v5,-1,5,-6,8,-9v25,-40,85,-71,156,-72v142,-1,227,119,227,268v0,149,-93,266,-234,266xm336,-413v-79,0,-130,66,-130,153v0,87,42,165,124,165v82,0,131,-69,131,-157v0,-87,-45,-161,-125,-161","w":621},"q":{"d":"259,12v-142,1,-226,-119,-226,-268v0,-148,89,-267,229,-266v72,0,127,26,160,75r2,0v-4,-45,13,-62,65,-63r112,0r0,108v-27,1,-62,-8,-62,22r0,580r-127,0r0,-216r2,-44r-2,0v-29,41,-82,71,-153,72xm161,-256v0,87,45,161,125,161v79,0,130,-66,130,-153v0,-87,-43,-165,-124,-165v-81,0,-131,69,-131,157","w":622},"r":{"d":"205,-386v23,-73,88,-142,185,-129r0,125v-43,-5,-79,-2,-115,25v-43,32,-66,85,-66,163r0,202r-126,0r0,-380v2,-30,-35,-21,-62,-22r0,-108r116,0v71,-4,73,57,66,124r2,0","w":412},"s":{"d":"302,-388v0,-25,-37,-36,-64,-36v-77,0,-100,53,-48,84v89,51,239,60,243,196v3,94,-92,156,-185,156v-101,0,-181,-39,-223,-91r60,-83v26,32,96,75,152,75v46,0,69,-17,69,-50v0,-21,-31,-43,-94,-67v-78,-30,-173,-65,-175,-169v-2,-102,93,-149,198,-149v90,0,180,39,179,106r0,53r-112,0r0,-25","w":468},"t":{"d":"336,2v-144,15,-251,-45,-251,-189r0,-222r-66,0r0,-101r69,0r0,-139r124,0r0,139r116,0r0,101r-116,0r0,206v-3,75,55,102,124,94r0,111","w":370},"u":{"d":"433,-94v-25,56,-93,106,-176,106v-117,0,-176,-65,-176,-194r0,-198v2,-30,-35,-21,-62,-22r0,-108r121,0v47,0,67,20,67,67r0,235v1,64,17,104,79,104v90,2,143,-81,143,-172r0,-234r127,0r0,381v-2,30,35,21,62,22r0,107r-117,0v-60,2,-73,-36,-66,-94r-2,0","w":638},"v":{"d":"51,-384v-6,-15,-19,-19,-39,-18r0,-108v42,2,96,-6,121,11v11,7,20,20,27,37r96,268r19,73r2,0v5,-29,11,-53,18,-73r96,-268v13,-33,31,-48,75,-48r68,0r0,108v-21,-1,-34,2,-40,18r-146,384r-151,0","w":545},"w":{"d":"52,-384v-5,-16,-21,-19,-42,-18r0,-108v46,2,108,-7,136,12v11,8,18,21,23,40r75,283r10,54r2,0v3,-18,7,-36,12,-54r94,-333r112,0r95,333r11,54r2,0v2,-18,5,-36,10,-54r74,-283v9,-38,27,-51,72,-52r87,0r0,108v-21,-1,-36,1,-42,18r-122,384r-143,0r-87,-291r-12,-55r-2,0v-28,120,-67,230,-99,346r-144,0","w":835},"x":{"d":"93,-385v-11,-20,-45,-17,-76,-17r0,-108v46,2,108,-6,138,10v11,6,23,19,34,38r50,84r16,33r2,0v20,-45,42,-77,66,-117v21,-36,32,-48,83,-48r88,0r0,108v-31,0,-62,-2,-75,17r-85,127r167,258r-141,0r-89,-142r-14,-27r-2,0v-5,11,-10,20,-15,27r-88,142r-141,0r166,-258","w":512},"y":{"d":"50,68v49,56,131,45,157,-30r17,-39r-170,-383v-6,-17,-20,-19,-42,-18r0,-108v43,2,100,-8,126,11v10,7,18,20,25,37r100,255r18,68r2,0v5,-28,11,-51,17,-68r87,-255v11,-32,33,-48,68,-48r86,0r0,108v-22,-1,-38,1,-44,18r-183,461v-31,79,-91,131,-191,133v-47,0,-87,-17,-122,-52","w":553},"z":{"d":"490,-68v0,48,-20,68,-67,68r-396,0r0,-68r235,-287v15,-21,29,-32,43,-47r0,-2v-36,4,-97,2,-139,2v-26,0,-22,27,-22,51r-115,0r0,-91v0,-47,20,-68,68,-68r374,0r0,69r-235,287r-43,47r0,2v42,-6,111,-3,160,-3v26,0,22,-26,22,-50r115,0r0,90","w":511},"{":{"d":"135,-327v54,16,80,69,82,126v3,68,-16,168,31,191v25,12,41,16,69,13r0,94v-65,8,-128,-8,-163,-41v-31,-29,-45,-72,-45,-127r0,-97v0,-61,-30,-96,-85,-104r0,-111v57,-1,85,-54,85,-106r0,-86v0,-79,30,-130,91,-153v38,-14,72,-18,117,-15r0,94v-61,-9,-100,24,-100,84r0,109v1,61,-29,106,-82,127r0,2","w":352},"|":{"d":"102,161r0,-957r108,0r0,957r-108,0","w":312},"}":{"d":"328,-272v-55,1,-85,53,-85,104r0,97v0,80,-30,131,-91,154v-38,14,-74,19,-117,14r0,-94v63,7,99,-21,99,-84r0,-120v-4,-66,41,-110,83,-126r0,-2v-47,-15,-83,-62,-83,-127r0,-109v1,-59,-36,-91,-99,-84r0,-94v126,-10,208,46,208,168v0,59,-8,124,21,157v22,24,34,31,64,35r0,111","w":352},"~":{"d":"56,-199v0,-121,51,-182,154,-182v43,0,77,15,104,45v27,30,53,46,76,46v44,0,66,-29,66,-87r100,0v0,121,-51,182,-153,182v-42,0,-77,-15,-105,-45v-28,-30,-52,-45,-75,-45v-44,0,-66,29,-66,86r-101,0"},"\u00a0":{"w":265},"\u00a1":{"d":"105,-391r0,-118r122,0r0,118r-122,0xm100,200r11,-504r111,0r10,504r-132,0","w":332},"\u00a2":{"d":"536,-235v-30,76,-92,151,-185,161r0,111r-89,0r0,-111v-122,-19,-207,-138,-207,-281v0,-143,85,-264,207,-282r0,-109r89,0r0,109v90,16,157,81,185,162r-114,44v-23,-59,-61,-89,-112,-89v-80,0,-127,78,-127,166v0,89,44,164,127,164v52,0,89,-30,112,-89","w":585},"\u00a3":{"d":"544,-68v0,48,-20,68,-67,68r-430,0r0,-111r58,0r0,-200r-44,0r0,-87r44,0r0,-121v-4,-151,170,-245,321,-185v43,17,59,31,85,54r-73,88v-31,-29,-64,-43,-97,-43v-61,-2,-104,34,-105,90r0,117r177,0r0,87r-177,0r0,200r168,0v31,2,20,-38,22,-65r118,0r0,108","w":586},"\u00a5":{"d":"85,-194r0,-76r160,0r0,-40r-27,-42r-134,0r0,-76r84,0r0,-2r-92,-147v-11,-23,-30,-22,-63,-22r0,-111v42,1,94,-4,121,10v14,7,27,21,40,42r93,156r43,78r2,0v40,-77,91,-159,136,-234v23,-39,39,-52,95,-52r65,0r0,111v-16,0,-37,-1,-46,4v-5,3,-11,9,-17,18r-92,147r0,2r82,0r0,76r-132,0r-27,42r0,40r159,0r0,76r-159,0r0,194r-131,0r0,-194r-160,0","w":621},"\u00a7":{"d":"87,-482v-34,-143,59,-242,198,-240v68,1,135,28,167,62r-57,81v-31,-26,-64,-39,-101,-39v-95,0,-121,59,-104,144r69,336r-99,0xm426,-178v34,144,-59,240,-198,240v-69,0,-133,-29,-167,-61r54,-86v23,23,71,44,121,44v53,0,98,-40,95,-101v0,-16,-4,-35,-9,-57r-67,-323r100,0","w":503},"\u00a8":{"d":"306,-777r0,-116r89,0r0,116r-89,0xm127,-777r0,-116r88,0r0,116r-88,0","w":509},"\u00a9":{"d":"390,12v-195,0,-358,-171,-358,-367v0,-196,163,-366,358,-366v195,0,359,170,359,366v0,196,-164,367,-359,367xm390,-640v-151,0,-269,132,-269,285v0,153,118,286,269,286v151,0,271,-133,271,-286v0,-153,-120,-285,-271,-285xm207,-353v0,-109,81,-195,195,-195v67,0,125,42,154,105r-76,36v-19,-39,-45,-58,-78,-58v-65,-1,-103,49,-103,113v0,58,38,111,89,111v50,1,78,-26,92,-58r76,35v-24,60,-79,103,-162,106v-106,3,-187,-90,-187,-195","w":781},"\u00aa":{"d":"248,-433v-13,26,-54,50,-98,50v-46,0,-102,-44,-101,-92v2,-103,94,-113,193,-116v-2,-41,-11,-54,-53,-55v-28,0,-32,7,-30,30r-86,0r0,-42v0,-31,29,-53,87,-60v106,-14,173,30,173,129r0,108v-1,18,22,11,37,12r0,80r-68,0v-34,0,-51,-14,-52,-44r-2,0xm142,-489v0,44,64,41,82,12v10,-16,17,-33,19,-55v-59,-2,-101,12,-101,43xm50,-266r0,-68r322,0r0,68r-322,0","w":416},"\u00ab":{"d":"270,-282r164,-206r121,0r-164,206r164,205r-121,0xm210,-77r-164,-205r164,-206r121,0r-164,206r164,205r-121,0","w":614},"\u00ac":{"d":"66,-339r0,-98r488,0r0,294r-102,0r0,-196r-386,0"},"\u00ad":{"d":"65,-230r0,-111r301,0r0,111r-301,0","w":431},"\u00ae":{"d":"390,12v-195,0,-358,-171,-358,-367v0,-196,163,-366,358,-366v195,0,359,170,359,366v0,196,-164,367,-359,367xm390,-640v-151,0,-269,132,-269,285v0,153,118,286,269,286v151,0,271,-133,271,-286v0,-153,-120,-285,-271,-285xm536,-430v0,54,-29,90,-65,101r0,2v9,2,16,9,23,20r32,60v6,11,17,13,33,12r0,61v-26,-1,-63,3,-80,-6v-7,-4,-14,-10,-20,-21r-49,-92v-8,-18,-35,-16,-61,-16r0,135r-85,0r0,-304r-32,0r0,-62r184,0v67,-2,120,47,120,110xm449,-424v0,-34,-19,-54,-52,-54r-48,0r0,109r47,0v34,0,53,-21,53,-55","w":781},"\u00af":{"d":"104,-783r0,-84r262,0r0,84r-262,0","w":467},"\u02c9":{"d":"104,-783r0,-84r262,0r0,84r-262,0","w":467},"\u00b0":{"d":"368,-564v0,86,-76,156,-163,156v-87,0,-163,-70,-163,-156v0,-86,75,-159,162,-159v87,0,164,73,164,159xm139,-564v0,36,30,65,66,65v36,0,67,-29,67,-65v0,-36,-31,-67,-67,-67v-36,0,-66,31,-66,67","w":410},"\u00b1":{"d":"42,-236r0,-99r216,0r0,-237r103,0r0,237r216,0r0,99r-216,0r0,236r-103,0r0,-236r-216,0xm56,85r508,0r0,98r-508,0r0,-98"},"\u00b2":{"d":"216,-718v73,0,140,54,140,132v0,113,-126,146,-188,196v-12,10,-18,21,-18,34v0,4,4,6,11,6r120,0v4,0,6,-2,6,-6r0,-33r88,0r0,73v0,33,-16,49,-49,49r-224,0v-43,-1,-50,-17,-50,-63v0,-51,15,-78,41,-104v36,-37,110,-71,145,-102v35,-30,27,-95,-31,-95v-23,0,-47,11,-48,30r0,22r-88,0r0,-50v-1,-61,81,-90,145,-89","w":437},"\u00b3":{"d":"379,-394v0,75,-81,135,-160,135v-60,0,-122,-35,-165,-89r66,-59v17,25,60,59,99,59v33,1,64,-23,63,-56v-1,-47,-50,-59,-103,-54r-13,-53v31,-39,57,-83,92,-118r0,-2v-27,4,-58,1,-87,2v-14,0,-7,21,-9,33r-88,0r0,-65v1,-36,11,-49,48,-49r246,0r0,65r-92,114v60,12,103,64,103,137","w":437},"\u00b4":{"d":"123,-757r76,-136r122,0r-105,136r-93,0","w":404},"\u00b5":{"d":"286,-104v90,2,143,-81,143,-172r0,-234r127,0r0,381v-2,30,35,21,62,22r0,107r-117,0v-60,2,-73,-36,-66,-94v-7,0,-6,8,-9,12v-31,50,-86,95,-172,94v-27,0,-50,-7,-69,-21r-2,0v11,73,6,132,7,209r-109,0r0,-580v2,-30,-35,-21,-62,-22r0,-108r121,0v47,0,67,20,67,67r0,235v1,64,17,104,79,104","w":638},"\u03bc":{"d":"286,-104v90,2,143,-81,143,-172r0,-234r127,0r0,381v-2,30,35,21,62,22r0,107r-117,0v-60,2,-73,-36,-66,-94v-7,0,-6,8,-9,12v-31,50,-86,95,-172,94v-27,0,-50,-7,-69,-21r-2,0v11,73,6,132,7,209r-109,0r0,-580v2,-30,-35,-21,-62,-22r0,-108r121,0v47,0,67,20,67,67r0,235v1,64,17,104,79,104","w":638},"\u00b6":{"d":"39,-476v0,-127,109,-234,235,-234r305,0r0,111r-213,0r0,649r-92,0r0,-291v-126,3,-235,-108,-235,-235xm428,50r0,-594r93,0r0,594r-93,0","w":625},"\u00b7":{"d":"71,-229r0,-126r123,0r0,126r-123,0","w":265},"\u2219":{"d":"71,-229r0,-126r123,0r0,126r-123,0","w":265},"\u00b8":{"d":"283,126v0,55,-52,82,-108,82v-4,0,-25,-2,-62,-7r0,-70v27,12,90,14,87,-19v4,-25,-39,-31,-69,-26r31,-111r58,13v-1,21,-7,37,-10,56v43,6,73,30,73,82","w":420},"\u00b9":{"d":"72,-267r0,-83r92,0r1,-236r-2,0v-11,20,-30,31,-45,47r-56,-61r115,-110r83,0r0,360r91,0r0,83r-279,0","w":437},"\u00ba":{"d":"403,-552v0,95,-80,168,-175,168v-95,0,-176,-73,-176,-168v0,-95,81,-168,176,-168v95,0,175,73,175,168xm143,-552v0,49,38,88,85,88v47,0,84,-39,84,-88v0,-49,-37,-89,-84,-89v-47,0,-85,40,-85,89xm67,-266r0,-68r322,0r0,68r-322,0","w":455},"\u00bb":{"d":"283,-77r164,-205r-164,-206r121,0r164,206r-164,205r-121,0xm58,-77r164,-205r-164,-206r121,0r164,206r-164,205r-121,0","w":614},"\u00bc":{"d":"300,0r277,-710r99,0r-277,710r-99,0xm77,-267r0,-83r92,0r1,-236r-2,0v-11,20,-30,31,-45,47r-56,-61r114,-110r83,0r0,360r87,0r0,83r-274,0xm538,-108r0,-56r175,-280r115,0r0,252r65,0r0,84r-65,0r0,108r-96,0r0,-108r-194,0xm635,-191v33,-2,65,0,99,-1r1,-153r-2,0v-23,50,-57,89,-84,135v-4,7,-11,11,-14,19","w":943},"\u00bd":{"d":"288,0r277,-710r98,0r-277,710r-98,0xm77,-267r0,-83r92,0r1,-236r-2,0v-11,20,-30,31,-45,47r-56,-61r114,-110r83,0r0,360r87,0r0,83r-274,0xm618,0v-43,-1,-50,-17,-51,-63v-2,-118,97,-142,166,-190v28,-19,42,-40,42,-65v0,-28,-22,-46,-51,-46v-34,0,-55,14,-49,52r-88,0r0,-50v-1,-61,82,-90,145,-90v73,0,140,55,140,133v0,115,-126,144,-188,195v-12,11,-18,22,-18,35v0,4,4,6,11,6r119,0v4,0,6,-2,6,-7r0,-32r89,0r0,73v0,33,-17,49,-50,49r-223,0","w":943},"\u00be":{"d":"297,0r277,-710r98,0r-276,710r-99,0xm382,-394v0,71,-81,135,-150,135v-81,0,-140,-44,-174,-89r65,-59v17,25,60,59,99,59v33,1,64,-23,63,-56v-1,-47,-50,-59,-103,-54r-13,-53v31,-39,57,-83,92,-118r0,-2v-27,4,-58,1,-87,2v-14,0,-7,21,-9,33r-88,0r0,-65v1,-36,11,-49,48,-49r246,0r0,65r-92,114v60,12,103,64,103,137xm538,-108r0,-56r175,-280r115,0r0,252r65,0r0,84r-65,0r0,108r-96,0r0,-108r-194,0xm635,-191v33,-2,65,0,99,-1r1,-153r-2,0v-23,50,-57,89,-84,135v-4,7,-11,11,-14,19","w":943},"\u00bf":{"d":"208,-392r0,-118r122,0r0,118r-122,0xm252,210v-113,0,-219,-74,-219,-188v0,-57,20,-104,61,-143r52,-46v52,-48,66,-69,62,-138r122,0v4,81,-8,126,-58,173v-35,33,-106,89,-106,135v0,52,43,91,89,91v42,1,85,-18,114,-43r71,88v-34,35,-119,71,-188,71","w":476},"\u00c0":{"d":"11,0r0,-111v25,1,40,-2,47,-22r211,-577r137,0r210,577v6,20,22,23,47,22r0,111v-45,-2,-107,6,-133,-12v-12,-8,-21,-23,-29,-46r-44,-124r-240,0r-44,124v-16,43,-28,58,-83,58r-79,0xm247,-290r180,0r-61,-178r-28,-106r-2,0v-25,115,-57,184,-89,284xm288,-757r-104,-136r122,0r76,136r-94,0","w":674},"\u00c1":{"d":"11,0r0,-111v25,1,40,-2,47,-22r211,-577r137,0r210,577v6,20,22,23,47,22r0,111v-45,-2,-107,6,-133,-12v-12,-8,-21,-23,-29,-46r-44,-124r-240,0r-44,124v-16,43,-28,58,-83,58r-79,0xm247,-290r180,0r-61,-178r-28,-106r-2,0v-25,115,-57,184,-89,284xm288,-757r76,-136r122,0r-105,136r-93,0","w":674},"\u00c2":{"d":"11,0r0,-111v25,1,40,-2,47,-22r211,-577r137,0r210,577v6,20,22,23,47,22r0,111v-45,-2,-107,6,-133,-12v-12,-8,-21,-23,-29,-46r-44,-124r-240,0r-44,124v-16,43,-28,58,-83,58r-79,0xm247,-290r180,0r-61,-178r-28,-106r-2,0v-25,115,-57,184,-89,284xm192,-757r91,-136r109,0r92,136r-95,0r-50,-81r-2,0r-51,81r-94,0","w":674},"\u00c3":{"d":"11,0r0,-111v25,1,40,-2,47,-22r211,-577r137,0r210,577v6,20,22,23,47,22r0,111v-45,-2,-107,6,-133,-12v-12,-8,-21,-23,-29,-46r-44,-124r-240,0r-44,124v-16,43,-28,58,-83,58r-79,0xm247,-290r180,0r-61,-178r-28,-106r-2,0v-25,115,-57,184,-89,284xm274,-820v-28,0,-39,31,-39,62r-79,0v0,-91,38,-137,114,-137v42,0,71,30,94,49v12,11,24,16,36,16v27,0,39,-32,39,-62r79,0v0,91,-38,137,-114,137v-42,0,-71,-30,-94,-49v-12,-11,-24,-16,-36,-16","w":674},"\u00c4":{"d":"11,0r0,-111v25,1,40,-2,47,-22r211,-577r137,0r210,577v6,20,22,23,47,22r0,111v-45,-2,-107,6,-133,-12v-12,-8,-21,-23,-29,-46r-44,-124r-240,0r-44,124v-16,43,-28,58,-83,58r-79,0xm247,-290r180,0r-61,-178r-28,-106r-2,0v-25,115,-57,184,-89,284xm383,-777r0,-116r89,0r0,116r-89,0xm204,-777r0,-116r88,0r0,116r-88,0","w":674},"\u00c5":{"d":"11,0r0,-111v25,1,40,-2,47,-22r211,-577r137,0r210,577v6,20,22,23,47,22r0,111v-45,-2,-107,6,-133,-12v-12,-8,-21,-23,-29,-46r-44,-124r-240,0r-44,124v-16,43,-28,58,-83,58r-79,0xm247,-290r180,0r-61,-178r-28,-106r-2,0v-25,115,-57,184,-89,284xm426,-824v0,48,-42,79,-89,79v-47,0,-89,-31,-89,-79v0,-48,42,-78,89,-78v47,0,89,30,89,78xm302,-824v0,20,15,35,35,35v20,0,35,-15,35,-35v0,-20,-15,-34,-35,-34v-20,0,-35,14,-35,34","w":674},"\u00c6":{"d":"487,0v-52,-1,-71,-16,-72,-68r0,-234r-159,0r-91,244v-18,43,-29,58,-84,58r-70,0r0,-111v26,1,37,-2,45,-22r237,-577r483,0v48,0,68,21,68,68r0,108r-119,0v-2,-27,9,-65,-22,-65r-156,0r0,186r227,0r0,111r-227,0r0,169v0,15,8,22,25,22r158,0v31,2,20,-38,22,-65r118,0r0,108v0,48,-20,68,-68,68r-315,0xm415,-413r0,-186r-47,0r-70,186r117,0","w":891},"\u00c7":{"d":"472,126v0,55,-51,82,-108,82v-8,0,-28,-2,-61,-7r0,-70v28,13,90,14,87,-19v4,-25,-39,-31,-69,-26r21,-77v-183,-17,-312,-173,-312,-373v0,-197,161,-365,360,-358v110,4,265,38,269,159r0,79r-119,0r0,-40v0,-54,-88,-76,-147,-76v-132,0,-227,100,-227,237v0,134,98,253,228,253v79,0,169,-42,218,-93r69,93v-58,63,-160,119,-275,121r-7,33v43,6,73,30,73,82","w":709},"\u00c8":{"d":"167,0v-48,0,-68,-20,-68,-68r0,-531r-65,0r0,-111r429,0v45,0,68,23,68,68r0,108r-119,0v-2,-27,9,-65,-22,-65r-160,0r0,186r230,0r0,111r-230,0r0,169v0,15,7,22,22,22r164,0v31,2,20,-38,22,-65r119,0r0,108v0,48,-21,68,-68,68r-322,0xm248,-757r-104,-136r122,0r76,136r-94,0","w":578},"\u00c9":{"d":"167,0v-48,0,-68,-20,-68,-68r0,-531r-65,0r0,-111r429,0v45,0,68,23,68,68r0,108r-119,0v-2,-27,9,-65,-22,-65r-160,0r0,186r230,0r0,111r-230,0r0,169v0,15,7,22,22,22r164,0v31,2,20,-38,22,-65r119,0r0,108v0,48,-21,68,-68,68r-322,0xm248,-757r76,-136r122,0r-105,136r-93,0","w":578},"\u00ca":{"d":"167,0v-48,0,-68,-20,-68,-68r0,-531r-65,0r0,-111r429,0v45,0,68,23,68,68r0,108r-119,0v-2,-27,9,-65,-22,-65r-160,0r0,186r230,0r0,111r-230,0r0,169v0,15,7,22,22,22r164,0v31,2,20,-38,22,-65r119,0r0,108v0,48,-21,68,-68,68r-322,0xm151,-757r91,-136r109,0r92,136r-95,0r-50,-81r-2,0r-51,81r-94,0","w":578},"\u00cb":{"d":"167,0v-48,0,-68,-20,-68,-68r0,-531r-65,0r0,-111r429,0v45,0,68,23,68,68r0,108r-119,0v-2,-27,9,-65,-22,-65r-160,0r0,186r230,0r0,111r-230,0r0,169v0,15,7,22,22,22r164,0v31,2,20,-38,22,-65r119,0r0,108v0,48,-21,68,-68,68r-322,0xm343,-777r0,-116r89,0r0,116r-89,0xm164,-777r0,-116r88,0r0,116r-88,0","w":578},"\u00cc":{"d":"38,0r0,-111r71,0r0,-488r-71,0r0,-111r266,0r0,111r-71,0r0,488r71,0r0,111r-266,0xm122,-757r-104,-136r122,0r76,136r-94,0","w":342},"\u00cd":{"d":"38,0r0,-111r71,0r0,-488r-71,0r0,-111r266,0r0,111r-71,0r0,488r71,0r0,111r-266,0xm122,-757r76,-136r122,0r-105,136r-93,0","w":342},"\u00ce":{"d":"38,0r0,-111r71,0r0,-488r-71,0r0,-111r266,0r0,111r-71,0r0,488r71,0r0,111r-266,0xm25,-757r91,-136r109,0r92,136r-95,0r-50,-81r-2,0r-51,81r-94,0","w":342},"\u00cf":{"d":"38,0r0,-111r71,0r0,-488r-71,0r0,-111r266,0r0,111r-71,0r0,488r71,0r0,111r-266,0xm216,-777r0,-116r89,0r0,116r-89,0xm37,-777r0,-116r88,0r0,116r-88,0","w":342},"\u00d0":{"d":"167,0v-48,0,-68,-20,-68,-68r0,-233r-48,0r0,-105r48,0r0,-193r-65,0r0,-111r289,0v219,-2,362,135,362,354v0,219,-143,358,-362,356r-156,0xm549,-355v0,-151,-87,-244,-233,-244r-86,0r0,193r123,0r0,105r-123,0r0,168v0,36,54,21,86,22v146,4,233,-93,233,-244","w":715},"\u00d1":{"d":"230,-68v0,48,-20,68,-68,68r-128,0r0,-111v27,-2,65,9,65,-22r0,-577r118,0r269,393v19,27,38,61,59,100r2,0v-15,-139,-7,-278,-7,-425v0,-47,20,-68,68,-68r128,0r0,111v-27,2,-65,-9,-65,22r0,577r-117,0r-270,-392v-19,-27,-38,-60,-59,-100r-2,0v15,139,7,278,7,424xm330,-820v-28,0,-39,31,-39,62r-79,0v0,-91,38,-137,114,-137v42,0,71,30,94,49v12,11,24,16,36,16v27,0,39,-32,39,-62r79,0v0,91,-38,137,-114,137v-42,0,-71,-30,-94,-49v-12,-11,-24,-16,-36,-16","w":770},"\u00d2":{"d":"397,12v-203,0,-367,-168,-367,-370v0,-202,164,-364,367,-364v203,0,367,162,367,364v0,202,-164,370,-367,370xm397,-600v-129,0,-231,110,-231,242v0,132,102,248,231,248v129,0,231,-117,231,-248v0,-132,-102,-242,-231,-242xm346,-757r-104,-136r122,0r76,136r-94,0","w":794},"\u00d3":{"d":"397,12v-203,0,-367,-168,-367,-370v0,-202,164,-364,367,-364v203,0,367,162,367,364v0,202,-164,370,-367,370xm397,-600v-129,0,-231,110,-231,242v0,132,102,248,231,248v129,0,231,-117,231,-248v0,-132,-102,-242,-231,-242xm346,-757r76,-136r122,0r-105,136r-93,0","w":794},"\u00d4":{"d":"397,12v-203,0,-367,-168,-367,-370v0,-202,164,-364,367,-364v203,0,367,162,367,364v0,202,-164,370,-367,370xm397,-600v-129,0,-231,110,-231,242v0,132,102,248,231,248v129,0,231,-117,231,-248v0,-132,-102,-242,-231,-242xm249,-757r91,-136r109,0r92,136r-95,0r-50,-81r-2,0r-51,81r-94,0","w":794},"\u00d5":{"d":"397,12v-203,0,-367,-168,-367,-370v0,-202,164,-364,367,-364v203,0,367,162,367,364v0,202,-164,370,-367,370xm397,-600v-129,0,-231,110,-231,242v0,132,102,248,231,248v129,0,231,-117,231,-248v0,-132,-102,-242,-231,-242xm332,-820v-28,0,-40,31,-40,62r-79,0v0,-91,38,-137,114,-137v27,0,58,16,93,49v12,11,24,16,36,16v27,0,40,-32,40,-62r79,0v0,91,-38,137,-114,137v-27,0,-58,-16,-93,-49v-12,-11,-24,-16,-36,-16","w":794},"\u00d6":{"d":"397,12v-203,0,-367,-168,-367,-370v0,-202,164,-364,367,-364v203,0,367,162,367,364v0,202,-164,370,-367,370xm397,-600v-129,0,-231,110,-231,242v0,132,102,248,231,248v129,0,231,-117,231,-248v0,-132,-102,-242,-231,-242xm440,-777r0,-116r89,0r0,116r-89,0xm261,-777r0,-116r88,0r0,116r-88,0","w":794},"\u00d7":{"d":"46,-69r197,-217r-197,-216r69,-70r195,214r195,-214r69,70r-198,216r198,217r-69,69r-195,-214r-195,214"},"\u00d8":{"d":"765,-360v4,204,-163,372,-367,372v-68,0,-130,-16,-186,-49r-46,63r-57,-39r45,-64v-82,-73,-123,-164,-123,-273v0,-210,161,-372,367,-372v67,0,129,16,186,49r46,-63r57,39r-46,63v69,61,122,154,124,274xm398,-600v-128,-3,-231,111,-231,242v0,68,22,126,66,173r277,-385v-35,-20,-72,-30,-112,-30xm398,-110v127,0,230,-117,230,-246v0,-68,-22,-124,-65,-169r-277,385v33,20,71,30,112,30","w":795},"\u00d9":{"d":"370,12v-161,0,-279,-107,-279,-265r0,-324v2,-31,-38,-20,-65,-22r0,-111r128,0v48,0,68,21,68,68r0,385v-1,91,58,147,148,147v91,0,148,-56,148,-148r0,-384v0,-47,20,-68,68,-68r128,0r0,111v-27,2,-65,-9,-65,22r0,324v2,158,-118,265,-279,265xm322,-757r-104,-136r122,0r76,136r-94,0","w":740},"\u00da":{"d":"370,12v-161,0,-279,-107,-279,-265r0,-324v2,-31,-38,-20,-65,-22r0,-111r128,0v48,0,68,21,68,68r0,385v-1,91,58,147,148,147v91,0,148,-56,148,-148r0,-384v0,-47,20,-68,68,-68r128,0r0,111v-27,2,-65,-9,-65,22r0,324v2,158,-118,265,-279,265xm322,-757r76,-136r122,0r-105,136r-93,0","w":740},"\u00db":{"d":"370,12v-161,0,-279,-107,-279,-265r0,-324v2,-31,-38,-20,-65,-22r0,-111r128,0v48,0,68,21,68,68r0,385v-1,91,58,147,148,147v91,0,148,-56,148,-148r0,-384v0,-47,20,-68,68,-68r128,0r0,111v-27,2,-65,-9,-65,22r0,324v2,158,-118,265,-279,265xm225,-757r91,-136r109,0r92,136r-95,0r-50,-81r-2,0r-51,81r-94,0","w":740},"\u00dc":{"d":"370,12v-161,0,-279,-107,-279,-265r0,-324v2,-31,-38,-20,-65,-22r0,-111r128,0v48,0,68,21,68,68r0,385v-1,91,58,147,148,147v91,0,148,-56,148,-148r0,-384v0,-47,20,-68,68,-68r128,0r0,111v-27,2,-65,-9,-65,22r0,324v2,158,-118,265,-279,265xm416,-777r0,-116r89,0r0,116r-89,0xm237,-777r0,-116r88,0r0,116r-88,0","w":740},"\u00dd":{"d":"242,0r0,-310r-168,-265v-13,-18,-15,-23,-41,-24r-23,0r0,-111v41,1,96,-4,122,10v13,7,25,21,38,42r94,156r43,80r2,0v39,-80,91,-160,136,-236v24,-40,37,-52,93,-52r67,0r0,111v-16,0,-38,-1,-47,5v-5,3,-10,9,-17,19r-168,265r0,310r-131,0xm259,-757r76,-136r122,0r-105,136r-93,0","w":615},"\u00de":{"d":"585,-364v0,134,-94,235,-227,233r-128,0r0,131r-131,0r0,-577v2,-31,-38,-20,-65,-22r0,-111r128,0v48,0,68,21,68,68r0,47r129,0v132,-2,226,97,226,231xm451,-364v0,-73,-42,-121,-114,-120r-107,0r0,242r105,0v73,1,116,-49,116,-122","w":610},"\u00df":{"d":"202,-68v0,48,-20,68,-68,68r-116,0r0,-107v26,-1,57,7,57,-22r0,-400v-4,-119,111,-193,227,-193v111,0,212,71,211,174v0,38,-16,70,-45,98v-61,60,-62,90,12,143v67,48,102,77,105,158v4,105,-81,163,-189,161v-56,-1,-102,-15,-139,-42r29,-98v31,21,64,32,100,32v47,0,71,-20,71,-60v0,-25,-27,-56,-81,-92v-34,-23,-81,-69,-81,-122v0,-76,90,-107,90,-177v0,-41,-38,-68,-85,-67v-55,1,-98,35,-98,94r0,452","w":598},"\u00e0":{"d":"352,-320v0,-77,-26,-104,-104,-104v-53,1,-62,16,-58,61r-118,0r0,-54v0,-88,106,-105,187,-105v147,0,220,68,220,203r0,190v-2,30,35,21,62,22r0,107r-114,0v-49,1,-71,-29,-64,-78v-5,1,-4,7,-7,10v-22,46,-79,79,-149,80v-94,2,-174,-63,-174,-159v0,-52,20,-91,61,-116v41,-26,79,-41,113,-46v64,-8,100,-12,145,-11xm244,-87v61,-1,117,-76,110,-146r-22,0v-114,0,-171,27,-171,80v0,42,33,67,83,66xm222,-573r-104,-136r122,0r76,136r-94,0","w":560},"\u00e1":{"d":"352,-320v0,-77,-26,-104,-104,-104v-53,1,-62,16,-58,61r-118,0r0,-54v0,-88,106,-105,187,-105v147,0,220,68,220,203r0,190v-2,30,35,21,62,22r0,107r-114,0v-49,1,-71,-29,-64,-78v-5,1,-4,7,-7,10v-22,46,-79,79,-149,80v-94,2,-174,-63,-174,-159v0,-52,20,-91,61,-116v41,-26,79,-41,113,-46v64,-8,100,-12,145,-11xm244,-87v61,-1,117,-76,110,-146r-22,0v-114,0,-171,27,-171,80v0,42,33,67,83,66xm222,-573r76,-136r122,0r-105,136r-93,0","w":560},"\u00e2":{"d":"352,-320v0,-77,-26,-104,-104,-104v-53,1,-62,16,-58,61r-118,0r0,-54v0,-88,106,-105,187,-105v147,0,220,68,220,203r0,190v-2,30,35,21,62,22r0,107r-114,0v-49,1,-71,-29,-64,-78v-5,1,-4,7,-7,10v-22,46,-79,79,-149,80v-94,2,-174,-63,-174,-159v0,-52,20,-91,61,-116v41,-26,79,-41,113,-46v64,-8,100,-12,145,-11xm244,-87v61,-1,117,-76,110,-146r-22,0v-114,0,-171,27,-171,80v0,42,33,67,83,66xm126,-573r91,-136r109,0r92,136r-95,0r-50,-81r-2,0r-51,81r-94,0","w":560},"\u00e3":{"d":"352,-320v0,-77,-26,-104,-104,-104v-53,1,-62,16,-58,61r-118,0r0,-54v0,-88,106,-105,187,-105v147,0,220,68,220,203r0,190v-2,30,35,21,62,22r0,107r-114,0v-49,1,-71,-29,-64,-78v-5,1,-4,7,-7,10v-22,46,-79,79,-149,80v-94,2,-174,-63,-174,-159v0,-52,20,-91,61,-116v41,-26,79,-41,113,-46v64,-8,100,-12,145,-11xm244,-87v61,-1,117,-76,110,-146r-22,0v-114,0,-171,27,-171,80v0,42,33,67,83,66xm208,-636v-28,0,-39,31,-39,62r-79,0v0,-91,38,-137,114,-137v42,0,71,30,94,49v12,11,24,16,36,16v27,0,39,-32,39,-62r79,0v0,91,-38,137,-114,137v-42,0,-71,-30,-94,-49v-12,-11,-24,-16,-36,-16","w":560},"\u00e4":{"d":"352,-320v0,-77,-26,-104,-104,-104v-53,1,-62,16,-58,61r-118,0r0,-54v0,-88,106,-105,187,-105v147,0,220,68,220,203r0,190v-2,30,35,21,62,22r0,107r-114,0v-49,1,-71,-29,-64,-78v-5,1,-4,7,-7,10v-22,46,-79,79,-149,80v-94,2,-174,-63,-174,-159v0,-52,20,-91,61,-116v41,-26,79,-41,113,-46v64,-8,100,-12,145,-11xm244,-87v61,-1,117,-76,110,-146r-22,0v-114,0,-171,27,-171,80v0,42,33,67,83,66xm317,-593r0,-116r89,0r0,116r-89,0xm138,-593r0,-116r88,0r0,116r-88,0","w":560},"\u00e5":{"d":"352,-320v0,-77,-26,-104,-104,-104v-53,1,-62,16,-58,61r-118,0r0,-54v0,-88,106,-105,187,-105v147,0,220,68,220,203r0,190v-2,30,35,21,62,22r0,107r-114,0v-49,1,-71,-29,-64,-78v-5,1,-4,7,-7,10v-22,46,-79,79,-149,80v-94,2,-174,-63,-174,-159v0,-52,20,-91,61,-116v41,-26,79,-41,113,-46v64,-8,100,-12,145,-11xm244,-87v61,-1,117,-76,110,-146r-22,0v-114,0,-171,27,-171,80v0,42,33,67,83,66xm360,-640v0,48,-42,79,-89,79v-47,0,-89,-31,-89,-79v0,-48,42,-78,89,-78v47,0,89,30,89,78xm236,-640v0,20,15,35,35,35v20,0,35,-15,35,-35v0,-20,-15,-34,-35,-34v-20,0,-35,14,-35,34","w":560},"\u00e6":{"d":"353,-319v1,-77,-27,-105,-105,-105v-52,1,-62,16,-58,61r-118,0v-1,-54,-3,-92,32,-118v35,-26,88,-41,164,-41v76,0,130,25,161,75r2,0v41,-50,97,-75,169,-75v156,-2,240,127,223,291r-349,0v6,77,65,133,138,135v65,1,119,-21,155,-57r53,88v-42,42,-116,77,-205,77v-97,0,-169,-37,-214,-112r-2,0v-25,58,-107,111,-183,111v-98,0,-182,-59,-182,-149v-1,-87,49,-134,117,-154v67,-20,129,-28,202,-27xm696,-319v0,-59,-41,-105,-100,-104v-63,1,-106,47,-117,104r217,0xm246,-87v61,-1,115,-75,109,-144r-36,0v-105,0,-157,26,-157,78v0,43,33,67,84,66","w":866},"\u00e7":{"d":"377,126v0,55,-51,82,-107,82v-4,0,-25,-2,-62,-7r0,-70v27,12,90,14,87,-19v4,-25,-39,-31,-69,-26r22,-80v-126,-21,-216,-124,-216,-268v0,-146,122,-260,279,-260v63,0,112,16,151,46v38,29,35,70,34,129r-112,0r0,-28v0,-28,-43,-40,-73,-40v-89,-1,-151,70,-151,161v0,95,71,156,167,155v49,0,97,-23,143,-69r53,88v-44,48,-121,93,-211,92r-7,32v44,6,72,30,72,82","w":538},"\u00e8":{"d":"306,12v-158,4,-274,-117,-274,-270v0,-148,108,-264,254,-264v159,0,249,123,228,289r-352,0v4,76,69,136,141,137v68,1,122,-26,155,-57r53,88v-42,42,-116,76,-205,77xm387,-321v0,-58,-42,-104,-101,-103v-65,1,-108,45,-120,103r221,0xm239,-573r-104,-136r122,0r76,136r-94,0","w":557},"\u00e9":{"d":"306,12v-158,4,-274,-117,-274,-270v0,-148,108,-264,254,-264v159,0,249,123,228,289r-352,0v4,76,69,136,141,137v68,1,122,-26,155,-57r53,88v-42,42,-116,76,-205,77xm387,-321v0,-58,-42,-104,-101,-103v-65,1,-108,45,-120,103r221,0xm239,-573r76,-136r122,0r-105,136r-93,0","w":557},"\u00ea":{"d":"306,12v-158,4,-274,-117,-274,-270v0,-148,108,-264,254,-264v159,0,249,123,228,289r-352,0v4,76,69,136,141,137v68,1,122,-26,155,-57r53,88v-42,42,-116,76,-205,77xm387,-321v0,-58,-42,-104,-101,-103v-65,1,-108,45,-120,103r221,0xm142,-573r91,-136r109,0r92,136r-95,0r-50,-81r-2,0r-51,81r-94,0","w":557},"\u00eb":{"d":"306,12v-158,4,-274,-117,-274,-270v0,-148,108,-264,254,-264v159,0,249,123,228,289r-352,0v4,76,69,136,141,137v68,1,122,-26,155,-57r53,88v-42,42,-116,76,-205,77xm387,-321v0,-58,-42,-104,-101,-103v-65,1,-108,45,-120,103r221,0xm333,-593r0,-116r89,0r0,116r-89,0xm154,-593r0,-116r88,0r0,116r-88,0","w":557},"\u00ec":{"d":"156,0v-48,0,-68,-20,-68,-68r0,-312v2,-30,-35,-21,-62,-22r0,-108r121,0v45,0,68,23,68,68r0,313v-2,30,35,21,61,22r0,107r-120,0xm95,-573r-104,-137r121,0r76,137r-93,0","w":302},"\u00ed":{"d":"156,0v-48,0,-68,-20,-68,-68r0,-312v2,-30,-35,-21,-62,-22r0,-108r121,0v45,0,68,23,68,68r0,313v-2,30,35,21,61,22r0,107r-120,0xm95,-573r76,-137r121,0r-104,137r-93,0","w":302},"\u00ee":{"d":"156,0v-48,0,-68,-20,-68,-68r0,-312v2,-30,-35,-21,-62,-22r0,-108r121,0v45,0,68,23,68,68r0,313v-2,30,35,21,61,22r0,107r-120,0xm-3,-573r92,-137r109,0r92,137r-96,0r-50,-82r-2,0r-50,82r-95,0","w":302},"\u00ef":{"d":"156,0v-48,0,-68,-20,-68,-68r0,-312v2,-30,-35,-21,-62,-22r0,-108r121,0v45,0,68,23,68,68r0,313v-2,30,35,21,61,22r0,107r-120,0xm174,-593r0,-117r89,0r0,117r-89,0xm20,-593r0,-117r88,0r0,117r-88,0","w":302},"\u00f0":{"d":"280,12v-140,0,-242,-115,-242,-246v0,-131,97,-231,235,-231v41,0,76,11,102,29r2,0v-19,-43,-51,-78,-94,-106r-185,80r-6,-75r111,-49v-33,-16,-71,-29,-115,-40r35,-100v84,19,156,46,216,83r148,-63r6,74r-88,39v91,80,137,185,137,315v1,164,-91,290,-262,290xm292,-366v-75,0,-127,61,-126,134v0,74,44,137,122,137v79,0,126,-79,126,-153v0,-76,-46,-118,-122,-118","w":585},"\u00f1":{"d":"354,-406v-92,0,-145,77,-145,172r0,234r-126,0r0,-380v2,-30,-35,-21,-62,-22r0,-108r117,0v60,-2,74,38,65,94r2,0v29,-56,91,-106,180,-106v119,0,178,65,178,194r0,199v-2,30,35,21,62,22r0,107r-121,0v-48,0,-68,-20,-68,-68r0,-234v-1,-66,-16,-104,-82,-104xm266,-636v-28,0,-40,31,-40,62r-79,0v0,-91,38,-137,114,-137v27,0,58,16,93,49v12,11,24,16,36,16v27,0,40,-32,40,-62r79,0v0,91,-38,137,-114,137v-27,0,-58,-16,-93,-49v-12,-11,-24,-16,-36,-16","w":643},"\u00f2":{"d":"312,12v-153,0,-280,-114,-280,-267v0,-153,126,-267,279,-267v153,0,280,115,280,267v0,153,-126,267,-279,267xm311,-414v-85,0,-151,72,-151,160v0,88,67,158,152,158v85,0,151,-70,151,-158v0,-88,-67,-160,-152,-160xm262,-573r-104,-136r122,0r76,136r-94,0","w":623},"\u00f3":{"d":"312,12v-153,0,-280,-114,-280,-267v0,-153,126,-267,279,-267v153,0,280,115,280,267v0,153,-126,267,-279,267xm311,-414v-85,0,-151,72,-151,160v0,88,67,158,152,158v85,0,151,-70,151,-158v0,-88,-67,-160,-152,-160xm263,-573r76,-136r122,0r-105,136r-93,0","w":623},"\u00f4":{"d":"312,12v-153,0,-280,-114,-280,-267v0,-153,126,-267,279,-267v153,0,280,115,280,267v0,153,-126,267,-279,267xm311,-414v-85,0,-151,72,-151,160v0,88,67,158,152,158v85,0,151,-70,151,-158v0,-88,-67,-160,-152,-160xm166,-573r91,-136r109,0r92,136r-95,0r-50,-81r-2,0r-51,81r-94,0","w":623},"\u00f5":{"d":"312,12v-153,0,-280,-114,-280,-267v0,-153,126,-267,279,-267v153,0,280,115,280,267v0,153,-126,267,-279,267xm311,-414v-85,0,-151,72,-151,160v0,88,67,158,152,158v85,0,151,-70,151,-158v0,-88,-67,-160,-152,-160xm248,-636v-28,0,-39,31,-39,62r-79,0v0,-91,38,-137,114,-137v42,0,71,30,94,49v12,11,24,16,36,16v27,0,39,-32,39,-62r79,0v0,91,-38,137,-114,137v-42,0,-71,-30,-94,-49v-12,-11,-24,-16,-36,-16","w":623},"\u00f6":{"d":"312,12v-153,0,-280,-114,-280,-267v0,-153,126,-267,279,-267v153,0,280,115,280,267v0,153,-126,267,-279,267xm311,-414v-85,0,-151,72,-151,160v0,88,67,158,152,158v85,0,151,-70,151,-158v0,-88,-67,-160,-152,-160xm357,-593r0,-116r89,0r0,116r-89,0xm178,-593r0,-116r88,0r0,116r-88,0","w":623},"\u00f7":{"d":"249,-437r0,-108r114,0r0,108r-114,0xm46,-236r0,-99r521,0r0,99r-521,0xm249,-27r0,-108r114,0r0,108r-114,0"},"\u00f8":{"d":"591,-257v0,155,-126,272,-280,269v-46,0,-88,-9,-125,-27r-41,58r-55,-39r38,-53v-64,-52,-96,-119,-96,-200v0,-158,124,-275,279,-273v48,0,93,11,134,32r41,-57r55,38r-40,55v60,53,90,118,90,197xm378,-398v-105,-53,-218,32,-218,140v0,44,13,81,39,111xm253,-108v104,44,210,-38,210,-141v0,-43,-11,-77,-34,-104","w":623},"\u00f9":{"d":"433,-94v-25,56,-93,106,-176,106v-117,0,-176,-65,-176,-194r0,-198v2,-30,-35,-21,-62,-22r0,-108r121,0v47,0,67,20,67,67r0,235v1,64,17,104,79,104v90,2,143,-81,143,-172r0,-234r127,0r0,381v-2,30,35,21,62,22r0,107r-117,0v-60,2,-73,-36,-66,-94r-2,0xm264,-573r-104,-136r122,0r76,136r-94,0","w":638},"\u00fa":{"d":"433,-94v-25,56,-93,106,-176,106v-117,0,-176,-65,-176,-194r0,-198v2,-30,-35,-21,-62,-22r0,-108r121,0v47,0,67,20,67,67r0,235v1,64,17,104,79,104v90,2,143,-81,143,-172r0,-234r127,0r0,381v-2,30,35,21,62,22r0,107r-117,0v-60,2,-73,-36,-66,-94r-2,0xm264,-573r76,-136r122,0r-105,136r-93,0","w":638},"\u00fb":{"d":"433,-94v-25,56,-93,106,-176,106v-117,0,-176,-65,-176,-194r0,-198v2,-30,-35,-21,-62,-22r0,-108r121,0v47,0,67,20,67,67r0,235v1,64,17,104,79,104v90,2,143,-81,143,-172r0,-234r127,0r0,381v-2,30,35,21,62,22r0,107r-117,0v-60,2,-73,-36,-66,-94r-2,0xm167,-573r91,-136r109,0r92,136r-95,0r-50,-81r-2,0r-51,81r-94,0","w":638},"\u00fc":{"d":"433,-94v-25,56,-93,106,-176,106v-117,0,-176,-65,-176,-194r0,-198v2,-30,-35,-21,-62,-22r0,-108r121,0v47,0,67,20,67,67r0,235v1,64,17,104,79,104v90,2,143,-81,143,-172r0,-234r127,0r0,381v-2,30,35,21,62,22r0,107r-117,0v-60,2,-73,-36,-66,-94r-2,0xm359,-593r0,-116r89,0r0,116r-89,0xm180,-593r0,-116r88,0r0,116r-88,0","w":638},"\u00fd":{"d":"50,68v49,56,131,45,157,-30r17,-39r-170,-383v-6,-17,-20,-19,-42,-18r0,-108v43,2,100,-8,126,11v10,7,18,20,25,37r100,255r18,68r2,0v5,-28,11,-51,17,-68r87,-255v11,-32,33,-48,68,-48r86,0r0,108v-22,-1,-38,1,-44,18r-183,461v-31,79,-91,131,-191,133v-47,0,-87,-17,-122,-52xm230,-573r76,-136r122,0r-105,136r-93,0","w":553},"\u00fe":{"d":"586,-256v0,147,-88,268,-230,268v-67,0,-126,-28,-149,-68r-2,0v5,79,1,173,2,256r-127,0r0,-780v2,-30,-35,-21,-62,-22r0,-108r121,0v48,0,68,21,68,68r0,145r-2,44r2,0v32,-46,83,-69,151,-69v140,-2,228,120,228,266xm332,-414v-86,1,-129,60,-129,159v0,99,43,157,129,159v79,2,126,-76,126,-160v0,-85,-46,-159,-126,-158","w":618},"\u00ff":{"d":"50,68v49,56,131,45,157,-30r17,-39r-170,-383v-6,-17,-20,-19,-42,-18r0,-108v43,2,100,-8,126,11v10,7,18,20,25,37r100,255r18,68r2,0v5,-28,11,-51,17,-68r87,-255v11,-32,33,-48,68,-48r86,0r0,108v-22,-1,-38,1,-44,18r-183,461v-31,79,-91,131,-191,133v-47,0,-87,-17,-122,-52xm324,-593r0,-116r89,0r0,116r-89,0xm145,-593r0,-116r88,0r0,116r-88,0","w":553},"\u0152":{"d":"928,-68v0,47,-18,68,-65,68r-332,0r-145,9v-196,5,-356,-168,-356,-365v0,-198,160,-367,356,-362r145,8r303,0v48,0,68,21,68,68r0,108r-118,0v-2,-27,9,-65,-22,-65r-157,0r0,186r227,0r0,111r-227,0r0,191r183,0v31,2,20,-38,22,-65r118,0r0,108xm386,-597v-129,-2,-220,109,-220,241v0,133,91,245,220,243v40,0,69,-2,88,-7r0,-469v-23,-5,-53,-8,-88,-8","w":950},"\u0153":{"d":"322,12v-164,0,-290,-107,-290,-266v0,-159,125,-268,288,-268v85,0,154,35,205,105r2,0v44,-70,111,-105,201,-105v156,0,244,125,223,289r-352,0v11,85,68,137,161,137v45,1,95,-20,136,-57r52,88v-42,42,-116,77,-205,77v-95,0,-166,-36,-213,-108r-2,0v-52,72,-120,108,-206,108xm824,-321v-2,-59,-39,-104,-100,-103v-65,0,-109,45,-121,103r221,0xm311,-414v-85,0,-151,71,-151,160v0,90,66,158,152,158v86,0,151,-69,151,-159v0,-90,-67,-159,-152,-159","w":994},"\u0178":{"d":"242,0r0,-310r-168,-265v-13,-18,-15,-23,-41,-24r-23,0r0,-111v41,1,96,-4,122,10v13,7,25,21,38,42r94,156r43,80r2,0v39,-80,91,-160,136,-236v24,-40,37,-52,93,-52r67,0r0,111v-16,0,-38,-1,-47,5v-5,3,-10,9,-17,19r-168,265r0,310r-131,0xm354,-777r0,-116r89,0r0,116r-89,0xm175,-777r0,-116r88,0r0,116r-88,0","w":615},"\u02c6":{"d":"105,-757r91,-136r109,0r92,136r-95,0r-50,-81r-2,0r-51,81r-94,0","w":501},"\u02dc":{"d":"214,-820v-28,0,-39,31,-39,62r-79,0v0,-91,38,-137,114,-137v42,0,71,30,94,49v12,11,24,16,36,16v27,0,39,-32,39,-62r79,0v0,91,-38,137,-114,137v-42,0,-71,-30,-94,-49v-12,-11,-24,-16,-36,-16","w":548},"\u2013":{"d":"55,-236r0,-99r553,0r0,99r-553,0","w":663},"\u2014":{"d":"55,-236r0,-99r753,0r0,99r-753,0","w":863},"\u2018":{"d":"42,-504r75,-218r86,0r-47,218r-114,0","w":245},"\u2019":{"d":"42,-504r47,-219r114,0r-75,219r-86,0","w":245},"\u201a":{"d":"89,-129r114,0r-75,218r-86,0","w":245},"\u201c":{"d":"202,-504r74,-218r86,0r-47,218r-113,0xm42,-504r75,-218r86,0r-47,218r-114,0","w":404},"\u201d":{"d":"202,-504r47,-219r113,0r-74,219r-86,0xm42,-504r47,-219r114,0r-75,219r-86,0","w":404},"\u201e":{"d":"202,89r47,-218r113,0r-74,218r-86,0xm89,-129r114,0r-75,218r-86,0","w":404},"\u2022":{"d":"401,-291v0,90,-77,167,-167,167v-90,0,-167,-77,-167,-167v0,-90,77,-167,167,-167v90,0,167,77,167,167","w":469},"\u2026":{"d":"720,0r0,-127r123,0r0,127r-123,0xm435,0r0,-127r123,0r0,127r-123,0xm151,0r0,-127r122,0r0,127r-122,0","w":993},"\u2039":{"d":"210,-77r-164,-205r164,-206r121,0r-164,206r164,205r-121,0","w":392},"\u203a":{"d":"58,-77r164,-205r-164,-206r121,0r164,206r-164,205r-121,0","w":392},"\u20ac":{"d":"455,12v-177,1,-306,-115,-342,-262r-75,0r0,-76r62,0v-3,-23,-1,-40,0,-62r-62,0r0,-77r75,0v44,-167,226,-300,441,-244r-31,117v-69,-20,-144,-10,-195,26v-35,24,-61,58,-77,101r249,0r-16,77r-251,0v-3,21,-1,42,1,62r238,0r-15,76r-200,0v24,75,101,139,191,140v40,0,76,-5,105,-15r23,118v-35,13,-75,19,-121,19","w":612},"\u2122":{"d":"427,-267r0,-83v13,-1,31,5,32,-9r28,-351r89,0r91,209r14,42r2,0v4,-17,8,-31,13,-42r92,-209r88,0r28,351v2,14,19,8,33,9r0,83v-36,-2,-91,6,-113,-9v-7,-6,-12,-17,-13,-36r-13,-183r1,-31r-2,0r-78,178r-75,0r-78,-178r-2,0v2,74,-8,142,-12,214v-2,37,-11,44,-50,45r-75,0xm378,-710v36,1,46,9,47,45r0,76r-80,0v-2,-12,6,-37,-7,-37r-60,0r0,359r-96,0r0,-359r-58,0v-14,1,-6,24,-8,37r-82,0r0,-76v1,-36,11,-44,48,-45r296,0","w":991}}});
